  -81.325921372867128     
   138.55511866494282     
  -81.710845239827009     
   166.43737699302071     
  -193.99129591085298     
  -287.36684864477695     
   97.127729889083653     
  -162.64536661847671     
   8.7813137496316056     
  -9.2751443855412834     
  -215.83458719178685     
  -119.56133929765845     
  -192.45648326847339     
  -84.610133845610548     
   127.33654448029417     
   137.33726544822400     
   230.13059835957671     
   338.47267704531811     
   100.76208652310292     
  -19.057108998537796     
  -442.49930959508197     
  -104.14294594986364     
   24.383519936043715     
  -50.416420402713534     
   68.807127419849891     
  -88.429420746050681     
  -173.03991198403057     
   276.99090393280528     
  -25.194229024741389     
  -39.743128633471670     
  -63.478045278126082     
   123.59680425561777     
  -62.401264687669972     
   48.557233012699619     
   162.27324054892435     
  -45.446792042458519     
  -68.237802669313623     
  -46.426708499214783     
  -34.202091800406031     
   18.331964545027081     
  -17.837313245604580     
  -37.171456034204070     
   16.878713376131643     
  -18.444986412942434     
  0.68511787279649672     
  -33.321593190286372     
   50.496404332728410     
   74.819826693784862     
   19.866571276346974     
   10.800225717528804     
  -65.957845274118000     
   27.006340629209355     
   22.736463952056098     
  -24.759766862306826     
   33.524355461413620     
   187.68748903945905     
  -27.231837557759750     
  -56.131818679068267     
  -36.480069769024425     
  -33.478864237726221     
   68.250543696864057     
  -165.23289974197652     
  -29.758208368390399     
  -202.17404464652424     
   258.62923731228472     
   335.93682753346974     
  -120.87322478006389     
   196.91385692154941     
  -70.152794370958887     
   8.0740919424156044     
   326.91488053787970     
   55.219282367144949     
   205.77620780971972     
   67.329402810308750     
  -126.30306246541784     
  -171.25591899849556     
  -242.58281313245155     
  -345.79620502437427     
  -146.19415425674066     
   13.812326969002134     
   498.00647279516392     
   159.31656256377306     
  -111.30886478103298     
   61.926382661935399     
  -23.182564657785793     
   162.34840974395831     
   248.54813118067432     
  -412.54989451324644     
   4.6981991242234509     
   131.89754199196756     
   304.28796261892148     
  -668.47503253392085     
  -39.331474252774008     
  -475.07289571153825     
  -273.10620672482128     
   591.25684353902329     
   109.82556171667744     
   426.91098178772955     
  -45.046886660344342     
  -96.953406615212842     
   581.01690897696415     
   84.766518371846331     
   151.05610467272007     
   111.75809456444327     
  -161.19370297184250     
  -72.545341478530261     
  -435.90862745755140     
  -655.91189405759792     
  -307.44879268791863     
  -28.369579539810204     
   852.19356530774849     
   160.50354112073629     
  -394.18539005831906     
   162.30533304257852     
  -69.204540675373750     
  -499.41548542854747     
   542.38634755694557     
  -414.24881159145150     
   98.293468251856254     
   466.80500927230958     
   66.232285210668266     
   725.10477033249401     
  -259.35685486950507     
   4.3149058071345232     
  -208.56380838954661     
  -292.86030725824429     
  -320.03545871161407     
  -326.64722478859272     
   217.25050097921218     
  -330.48041381039633     
  -694.15590703205316     
   530.88439435482144     
   122.97852489363228     
   95.156882850465379     
  -639.74510250372430     
   253.41696868665989     
   344.71021331856122     
  -174.28919265115391     
   162.06656120650771     
   348.86448732139706     
  -72.321884558040338     
   23.946273993964475     
   2.0085201437846090     
  -266.16977872699096     
  -41.355291663528547     
  -318.65384121885302     
   196.53990661083307     
   541.79014794091120     
  -220.10252520301435     
  -142.18773696920667     
  -62.281303243616478     
   319.53638847103662     
   495.97571217738653     
   416.46760515926786     
  -3.1728896923954606     
  -332.69488913747017     
   50.201687251562532     
  -212.96340648686999     
   215.10134910895519     
   148.71380860134622     
  -485.52957021557552     
   227.27172497105008     
  -104.54442091880955     
  -4.5897196020780058     
   241.03725751161724     
   45.128504013161134     
   109.18886784208013     
   365.50477557403258     
   232.97047592508591     
  -29.943001331231365     
  -596.51278138232283     
  -190.15932110109335     
   534.68682705936158     
  -10.291547965330896     
  -30.889376364154380     
   136.86973751186028     
  -607.33530279388140     
   578.91641887919161     
   53.309301656254945     
  -658.36303003973262     
  -245.59659416129205     
  -292.90874037297505     
  -352.96401051708381     
  -192.02575466553856     
   200.48796692279981     
   95.266813708175448     
   124.12236524823204     
   12.118722499003981     
  -298.49751035588861     
   130.04439798843822     
   410.43285209831322     
  -603.71541530596721     
  -174.66451759306889     
  -21.468024390128313     
   185.57812630252883     
  -78.311129183038773     
   96.106038664508930     
   232.62121203285699     
  -75.820423102666567     
  -132.58233880933267     
  -71.267484925968688     
  -23.728942606237027     
  -297.72698477293221     
   96.006704302698267     
  -101.39541726631543     
   254.07627237849630     
   93.191936280647525     
  -421.36287153627586     
   37.506355863407144     
   507.37358293743364     
   63.992338466120735     
  -14.884736643241997     
   81.706894153483731     
   14.971427870095882     
  -24.451274973266042     
   44.327188789496830     
  -7.1756086931011884     
   51.483733065282493     
   39.660694399762733     
   11.513207089283199     
   9.4642394077519061     
   94.125904941294806     
   40.557540543426903     
   11.079757520612251     
  -4.9117733886785038     
  -16.891908319300157     
  -63.176894259060937     
  -67.123767590038682     
  -20.355738669459910     
   2.3326224569772980     
   61.366255401034834     
   36.999520669075729     
   34.658159604514971     
   9.8961281550487357     
   53.136965901649980     
  -45.415618496911030     
   5.7217460867023009     
   30.698382788152138     
   4.8830394582623198     
  -77.224171090875842     
  -222.57046756762861     
  -95.611607602238337     
  -194.95854375611191     
   52.894801176115074     
  -569.74062670229682     
   267.01348765184230     
  -119.28779311042750     
   18.057432775328831     
   39.043953003549419     
  -17.991196167733815     
  -19.540491035496153     
  -127.87303767945065     
  -32.663994068063651     
  -107.25157908217878     
   226.95257109551520     
   197.79606027477601     
   142.10407667678655     
  -286.58471214779615     
   112.98875213531301     
   75.666246788501951     
  -108.47673176408995     
  -65.855428081758959     
  -198.93893967112373     
  -137.00666882213943     
  -37.601463713784902     
   468.51060145356712     
   414.41421010269261     
   26.634443608101190     
  -282.20002703065762     
  -93.471185311118845     
   352.28812934118929     
   189.46796429604694     
   217.12651230508618     
  -38.891017704818481     
   736.71905525180046     
  -241.92022177410715     
   125.98427585410053     
  -11.021888835067434     
  -105.93281334033566     
   78.621045847782995     
   32.296601558727346     
   123.38597235583907     
   55.436134400973039     
   224.04428141892575     
  -183.35132728668742     
  -288.82461697104480     
  -217.16615438286257     
   216.52728577108891     
  -122.22584469966914     
  -76.826909071739010     
   61.549520286720288     
   153.85007423081026     
   208.27277543672704     
   168.05991212283178     
   100.73165120079918     
  -562.63461901888468     
  -389.23108929091489     
  -28.416523175754044     
   294.52906002221886     
   70.042228386564531     
   86.962440895093238     
   39.200266958450520     
   143.14941294056649     
  -77.384047387900651     
   370.90654800491461     
  -282.98418850757730     
   129.08697098453197     
   15.092742329374294     
   16.962490560372466     
  -32.772380260815318     
  -35.751212232009983     
   113.83988206169290     
   6.0259774655617706     
  -26.609255559000999     
  -353.05077891736113     
  -107.72383908351648     
  -64.740221327345978     
   296.70328869891767     
  -148.54783352101009     
  -43.924342796153439     
   126.11608642665087     
  -29.981085564914601     
   205.38500910296733     
   125.39903889215908     
  -14.231489767574601     
  -447.93490252005802     
  -432.56852244280606     
  -9.1636334220167619     
   256.22177697462513     
   103.23050877886476     
  -600.37315085735747     
  -412.77670246545097     
  -218.49801224857742     
   22.226875330864704     
  -1151.1752888997341     
   224.37696289204348     
  -283.73692971138007     
  -113.62271725990570     
   167.41300877327200     
  -166.34994494967160     
   93.209550548951015     
  -147.21459826797133     
  -37.123168908208136     
  -347.13832910676462     
   405.41122910222242     
   514.33313781916411     
   323.68705125822845     
  -162.19468992189377     
   219.95076144693849     
  -19.899038978567546     
  -22.420423000091073     
  -287.17738346792328     
  -322.25785282769840     
  -420.66792223704664     
  -105.27265985301166     
   1098.8883647410250     
   482.60299546018149     
   27.969336745866251     
  -335.11457485682632     
  -19.424299518436474     
   89.418562774416671     
  -226.84534080135478     
   408.62721333648830     
  -66.687572167894643     
  -49.059015145609294     
  -222.45915984627194     
  -194.68212388664821     
  -15.124458779986652     
  -147.32021010488364     
  -50.118596058542067     
   168.60414510383919     
   228.18282471133386     
   494.43108628221580     
   85.710796945817989     
  -301.59177942919848     
   208.22927379806706     
  -175.02295560009358     
   74.781461914323771     
   217.96909366722355     
  -132.24497717276427     
  -7.3835460862360645     
   250.73213493485972     
   3.2850955302675247     
  -82.326675665187224     
   264.68739032998832     
  -65.141860476890983     
   66.026932370880218     
  -354.71344635621665     
   214.18174952666246     
   94.410225464360394     
   411.01707631543184     
   346.72873153473313     
   59.523386360065075     
   185.38557756943965     
   666.05710331238004     
   383.18209505556814     
   104.90257479949602     
   209.01522611878448     
  -255.65279112525221     
   256.09958759919249     
  -71.313254335551548     
   74.175289157122279     
  -1.5746379796331855     
   348.72750690450249     
   104.65524701091827     
  -357.51060694113198     
  -77.635186733976695     
  -190.63322620357152     
  -37.314593731327065     
   57.582907479029629     
  -139.54885499925666     
   214.92281918932534     
   56.749615712963376     
   277.60546308742806     
   70.788214859904841     
  -487.36796919684082     
   171.69486697393782     
   75.080419623970528     
  -229.06688581907537     
  -280.48466157678695     
 -0.89018140169134086     
   64.865905595745289     
  -56.581900048570816     
   92.477813625535092     
   63.123927546941921     
   167.50763820233738     
   39.840127450709630     
   31.653746215179158     
   18.282503075634189     
   3.6746929796146124     
  -31.148240111695387     
  -2.2662527764063540     
  -91.026950273373131     
   38.863951063451104     
   108.25102376291608     
  -41.109853378126211     
   86.146902493605438     
  -18.712615606911839     
  -34.608872400975429     
   26.818079242456552     
   7.7077695367549941     
  -5.3413578802713495     
  -6.8646537963947889     
   47.508704354426783     
  -78.915102680857842     
   50.848980647919056     
   85.376798069994621     
   45.147333133925763     
  -152.23488233817281     
  -108.03913481762623     
   5.8153526390628283     
  -9.5673816949668815     
  -45.939142917998431     
   7.2540050431170631     
   10.190494071295689     
  -31.101886305856624     
  -13.492180719322599     
  -8.4069610268005324     
   7.2250671676836484     
  -24.656454725187206     
   6.7858322752349736     
   31.184217023507948     
   21.824945485029282     
   31.727895859312529     
   25.480033514961448     
  -4.0396383569269885     
  -37.499680357278464     
  -13.515883066715348     
  -22.571149612043893     
  -3.9609121238689093     
  -3.9036738741960688     
   67.722185328886525     
  -19.672717627388106     
   43.681710308880767     
   42.319290485025903     
   8.8513313554843833     
   57.010615475624775     
  -31.666737721763489     
   19.884382682382093     
   10.637106711535736     
  -13.436748960836587     
  0.71566786445182418     
  -13.762594839313524     
  -37.419189033791440     
  -4.0208388039138629     
   13.140093628729002     
   2.5109734456479869     
  -14.516033130521242     
  -25.078094585903646     
  -20.016596527304472     
  -11.023346236772319     
   21.856870471342564     
  -25.156174228141150     
  -19.670172707085321     
   9.5587409326638717     
   5.0787794701405948     
  -22.048100622715285     
  -7.7731859758076922     
  -11.298749137774671     
   11.735283459063544     
   22.636148961649830     
  -3.1505308733983419     
   5.8520348550711407E-002
   6.8925414823631632     
 -0.61311174582301520     
  -21.800417577033052     
  -19.151892154862836     
   98.640676397712298     
  -51.187446545765845     
  -22.118523860884792     
  -44.665723794847054     
   26.431843404897727     
   116.12234033003337     
  -48.515432413884085     
  -25.460197719560099     
   52.104677001425657     
   33.634795054080264     
   16.048350787470092     
  -19.988103251723437     
   89.293308111148860     
  -20.626875170057655     
  -71.806736382315989     
  -59.712149772628422     
  -89.399706628644950     
  -24.497658704121367     
   9.9270435553389049     
   85.821108755024412     
   43.340317112668110     
   48.761262553222416     
  -4.3872412752231966     
  -19.866673187842181     
  -199.97929546818924     
   46.698757818320338     
  -124.30000927319531     
  -132.69617703138101     
  -33.672509107545203     
  -179.22268018931410     
   89.088523046226285     
  -3.1851186924036670     
  -41.813781137748258     
   45.917782777042312     
  -17.387562264277285     
   55.936355454174219     
   115.64384666435402     
   9.6225744111797802     
  -22.214911022177539     
   4.5403331504037050     
   35.118769974563705     
   71.359968721915124     
   63.648031458011587     
   34.515033058067495     
  -84.987892306748250     
   57.377545684741364     
   46.223650427857457     
  -45.393153817100071     
  -14.270943492501308     
   66.602973814042826     
   8.2222737915119914     
   44.486236332917841     
  -8.4634642037633352     
  -47.145086447974556     
   2.1997197332912797     
   4.0424387793168046     
  -20.431244685421699     
  -19.286166461457693     
   59.189404708678680     
   52.130874061924544     
  -257.71722561914646     
   112.25289751939287     
   68.596614116032356     
   124.99343834607375     
  -46.603716710475986     
  -124.75497452267614     
   113.39924827955626     
   23.610908541653277     
  -14.297517561736266     
  -49.973827301324228     
  -15.321974812624505     
   12.676431691655088     
  -169.27470407994414     
   44.872169562939433     
   98.036626272029991     
   114.85329605274859     
   132.56341293269327     
  -44.571718628329300     
   8.1635521023090831     
  -95.560228229390574     
  -31.702794366263127     
  -37.210537422361838     
   6.5667884192407175     
   70.926753640416877     
   347.01925414252742     
  -64.824045642231624     
   195.72517395648038     
   236.04149957509892     
   73.802330742715455     
   329.47737948947071     
  -173.57947316316680     
  -93.867341758972941     
   79.354833154019218     
  -70.466681490417159     
   76.183257666834081     
  -172.33313347359262     
  -199.14443653796400     
  -19.172857567391759     
   4.1273358881850983     
  -40.959078464706153     
  -21.944473396780655     
  -101.16714684111224     
  -151.21599489992269     
  -78.316762800889450     
   213.48516555963096     
  -69.171264854203628     
  -42.284100733794332     
   93.987736695402305     
   4.4216960643156220     
  -126.48542164620369     
  -11.422720194686883     
  -104.20369838820125     
   4.7779313617051038     
   43.834240320400639     
   19.328098299776176     
  -12.923864394382026     
   45.495875637168552     
   66.032040453771685     
  -95.588034625570742     
  -56.519461002102716     
   366.99912026085605     
  -137.13915523849045     
  -113.89800605753221     
  -185.97748180641605     
   81.703613773525760     
   40.891685868095685     
  -133.32399507075766     
   3.6671699656359733     
  -47.747153527018483     
   71.861922533599554     
   9.0918876680471623     
   9.9996876295328718     
   192.65460077766815     
  -86.298904283632936     
  -135.47001701323794     
  -219.82778590564371     
  -150.72341353118171     
   104.14333463932061     
  -74.818460383225244     
   85.250108154537585     
   3.1578190005817013     
  -74.291398715351477     
   3.7493764357337485     
  -66.446878607144811     
  -423.63456693077251     
   81.475669335629021     
  -201.58177758180210     
  -243.10428578432666     
  -101.25025343252220     
  -421.96660178217110     
   299.20658499951327     
   133.90921403901339     
  -64.554651329491648     
   30.956894807049611     
  -175.67933366699734     
   309.81428101746803     
   261.57240437670038     
   52.398002435226481     
   51.908618366916379     
   93.574138908806219     
  -4.4323052657299122     
   51.510037212290484     
   274.89008981417777     
   150.66080284076224     
  -397.07261185787388     
   39.125464986188746     
   9.1900695713866938     
  -69.108196439400302     
   15.610965137738875     
   173.15159305021174     
   44.586576814524008     
   151.87055604172093     
  -38.228330536040417     
  -20.516686275038136     
  -53.985582219522193     
   39.614946335265458     
  -74.254200167063971     
  -124.49025386452809     
   134.75150649104015     
   6.1323072737811533     
  -393.01705119081538     
   212.52372675562447     
   120.12712054859672     
   42.287829234895291     
   486.85429536242964     
  -693.56482184192282     
   52.887265997683954     
   361.16183281162131     
   193.86025909001918     
   409.12846197279242     
   12.000890897300620     
   255.57873697551909     
   89.010288735528832     
  -332.45247419064651     
  -420.44246820806444     
  -864.07946794597967     
  -45.127595713096781     
   331.36359916706965     
  -512.39301569650729     
   125.34654737636620     
  -90.423156696787515     
  -429.69815666012181     
   243.43364361515239     
   26.977590869173333     
  -292.16234013639860     
   66.998740149953903     
   266.35089499303302     
  -383.95302183882046     
  -230.38656454752979     
  -263.44630106963729     
   586.48378093272504     
  -170.67162046605068     
  -27.570851650558918     
  -286.02506344589568     
  -696.78965587544496     
   558.62324557401723     
   442.89522823658842     
   383.40051001293881     
  -118.82768492898101     
   507.14663562844225     
   226.66667522350218     
  -262.56248242062446     
   521.27201462601306     
   576.37598045157301     
  -884.13897058894645     
  -346.51854999879941     
  -351.37996374718733     
   1312.8574624959610     
  -313.46729678339557     
  -312.13037554489699     
   849.12011761363215     
  -16.583112709068100     
  -596.07777387186991     
  -603.83850115249822     
  -226.89810469850721     
   399.49706181191164     
   277.70623202277835     
   231.64994860178263     
   779.50164513775348     
  -855.64118836524335     
  -445.88201840430281     
   279.44071546153685     
  -259.26237989125673     
   145.81987182982283     
  -200.95542581461265     
   224.26477668769283     
   98.032974602033676     
  -79.339061059039622     
   55.308762349166557     
  -167.17196945675462     
   22.426726461698063     
  -85.279808285269667     
  -125.85599072976881     
   165.08973845192392     
   243.17300025564026     
   441.07530840720233     
   148.89484464296831     
  -139.87864453374664     
   210.49076582415833     
  -79.866985608333621     
   2.5225136088635125     
   276.65627243505065     
  -45.107374245499031     
  -2.1300643776320212     
   395.27070353874791     
  -84.538756416050489     
   73.485463231706987     
   186.69297481736410     
   124.95947832779507     
   409.71946666171164     
  -443.12919383866506     
  -75.142644227668029     
  -14.526867555847623     
   95.939648526264477     
   315.14268398903994     
  -348.02246088632768     
  -251.41234342783343     
  -135.24664596522209     
  -18.749830395795875     
  -187.98217793617147     
  -55.911243585418063     
   101.59736197983958     
  -324.99556697205696     
  -253.12485110779417     
   518.41468661978570     
   90.592686387343818     
   81.593770467418935     
  -313.82760812218879     
   84.746738559764353     
  -34.234084056109488     
  -252.85756346075405     
  -57.637842488526260     
   197.16739159075775     
   122.86925473508964     
   99.968356511230851     
  -133.59774842348318     
  -9.0027899603213655     
   33.371599331968071     
  -255.79377944693928     
   228.06322721539809     
   286.55260477723431     
  -208.57445242562892     
   14.996401340484825     
  -195.03492655300482     
  -249.87435835739444     
   116.30528607639997     
  -257.06509070096189     
  -359.19435675671485     
  -504.25411698825519     
  -87.712672509951673     
  -166.19794688957234     
   89.078004006066450     
  -134.04791532347721     
   89.802039152598255     
 -0.11619663864863886     
   160.98286747169351     
  -231.74095536627627     
  -269.53144528321059     
   232.76136763139436     
  -110.74489637172472     
   163.37789418465485     
   22.186320090851009     
  -87.763258081793865     
   72.409487718693953     
  -96.276468923420410     
   24.823137079233806     
  -223.39194803500942     
   102.95262817829125     
   107.64851469810020     
  -307.02727123063988     
  -124.59799798629386     
   411.84783946663578     
   303.86915243359783     
   134.23739926481798     
   350.79367269176231     
  -290.32646124284724     
  -289.60764533682203     
  -211.10911582783504     
   110.42395898420783     
  -283.39022374998751     
  -135.09345053651978     
   100.53624087702866     
  -227.70430363358884     
  -296.34044283417421     
   399.30156782081264     
   196.23221204220266     
   235.98626641142323     
  -809.48557755097181     
   170.78282186731002     
   227.59829610532080     
  -514.61931722016345     
   7.2508928749689563     
   340.87237798576513     
   415.61797484121473     
   123.23200316777860     
  -245.70495118974250     
  -195.10265109608716     
  -219.48891302201238     
  -475.23521569914288     
   521.42044342420138     
   242.46851701683045     
  -132.22366617093954     
   199.93470996358502     
   62.740645890811471     
   110.54976278507094     
   24.907477978694118     
   72.849931844015430     
  -64.492830226364489     
  -91.958846983340209     
  -49.674843335919817     
  -12.270839077256316     
   77.236661182616572     
  -116.05364718461544     
  -140.75446995150330     
   145.37471033533177     
   56.836403562248179     
  -54.972093964601633     
  -49.903341474916992     
   47.060159181516596     
  -12.928480236283884     
  -49.712307486310259     
   24.786923281864699     
   44.946452600748472     
   21.049030306742690     
  -4.8552272093024458     
   56.114276112058313     
  -63.400507592557908     
   79.211451470127429     
  -61.219103035760710     
   5.0687736066723446     
   62.242479438816439     
  -37.609369833752304     
  -98.842918010298902     
  -17.910015004873443     
  -36.122427316558515     
  -82.547136386384011     
   30.544708674523122     
   3.0585497855436858     
   70.110547012172233     
   32.338443755465676     
   30.060902454881163     
  -6.7555570810111085     
   28.990602663150682     
  -58.902821246604127     
  -31.233009071829272     
  -27.601888375098941     
   14.545699398297058     
   27.992443738382192     
  -58.722798404246021     
  -9.4902288152079906E-002
  -108.43502091327584     
   85.479191407430633     
  -10.402909961414295     
   39.299954807129510     
   119.01429790473944     
   85.771582661083386     
  -12.018084033273638     
  -152.08175658105100     
  -28.865696018444726     
  -11.818651767637974     
  -33.908483229339623     
   15.542091551376304     
   7.0290282076085031     
  -4.1524043315425621     
   72.253414279989570     
   59.545116445615037     
  -19.390220836725032     
  -17.742276262589243     
  -100.18544566319464     
  -28.166678529452682     
  -14.209839918269374     
   8.0003863905996990     
  -33.977874792420039     
   30.048266763100873     
   33.304026043804541     
   35.765785233659926     
   13.477580293087208     
   3.5135516852080797     
   46.566285432601234     
  -13.856667922775403     
   64.018110664009029     
  -93.727811852975250     
   10.445730553294901     
  -36.950846848469759     
  -97.929293842174857     
  -73.249845622717743     
   26.799987917245922     
   109.76541172984037     
   41.781483849192703     
   27.019166777294274     
   19.860707401234880     
   18.418196304925388     
  -2.0912681469258798     
   8.4217586420327066     
   19.823449861343686     
   37.517011472246651     
  -8.3610683448389604     
  -3.5026889205329730     
  -35.637383907716632     
  -17.508304835681439     
  -15.365965538285698     
  -2.7719884137982760     
  -14.026107633095567     
   25.628651480100419     
   9.9349073804769166     
   10.546868758566275     
  -7.6139244992025832     
  -4.3712867862557037     
   20.058167769607991     
  0.50824773576120286     
   48.685698551434712     
  -35.290988279617515     
   2.3551146566936008     
  -14.883754918581902     
  -51.605966449853675     
  -43.455676349124694     
   14.335431784141582     
   61.608767134388792     
   16.991941160759911     
   12.175330820721044     
   18.500360271707912     
  -7.5589776824631034     
  -1.3674210092395380     
   2.2869297882804909     
   94.662373174027039     
   97.732456985616409     
  -32.250042534584232     
  -21.243668173757840     
  -138.82447296671037     
  -44.015240441719136     
  -27.415501735859142     
   10.714223451628584     
  -48.986190927681605     
   55.671541740884805     
   48.364083887092640     
   50.008255736917953     
   9.5059023240023599     
  -5.4272429848883554     
   72.979439867618765     
  -15.463361246839920     
   112.28824438384314     
  -136.39655418125983     
   15.219746751938668     
  -55.488208321279664     
  -153.71196341235424     
  -114.66069183989009     
   35.696412346472059     
   178.76549798337902     
   58.071679870723550     
   35.539003543921837     
   35.456016799751765     
   14.763812301409176     
  -4.6306622525148091     
   6.0970496113286501     
  -141.61901392636784     
  -136.36207616398931     
   21.096689412546485     
   37.378083439437312     
   209.63472955346089     
   77.991936956504190     
   67.857979196284916     
   12.372439528390096     
   79.556446086372858     
  -71.300071152921944     
  -50.756524698076717     
  -58.488180079985455     
   7.5454662371950221     
  -22.108477429729668     
  -83.090982430027310     
  -15.735610508784655     
  -201.98019702702291     
   181.77928760969243     
  -9.4859584102012366     
   81.685648162766810     
   258.87225861841949     
   180.67884373946097     
  -73.879020572094745     
  -243.16679663053358     
  -91.366280000681400     
  -74.074356763309751     
  -70.791764080044857     
  0.84108957943970686     
  -2.1496070890684469     
  -4.7902458328897604     
   54.712749744992649     
   72.902539646083980     
  -15.726087508077139     
  -17.995761122421840     
  -48.163692077331199     
  -24.319465255067080     
  -50.281522095563147     
   5.8317821190161059     
  -50.151723631383561     
  -39.216132627522974     
   34.511870654868346     
  -17.781202668642397     
   6.2073352687165730     
  -27.705724500381322     
   5.4715080857814415     
  -39.006222605881874     
   31.997800871677853     
  -58.943405176377361     
  -35.320014489817858     
  -36.443883179938773     
  -83.127261706965399     
  -31.601542850982874     
   9.3014319212772261     
   57.114207039938066     
   61.962492068006718     
   44.256378555219449     
   29.700650363893494     
   116.58709356758477     
   24.773142619639518     
  -15.411440896944868     
  -38.604677652393320     
  -12.430866105222265     
   26.473853332631325     
   15.044969750453125     
   61.150249832817536     
   3.2124122078510156     
   42.909453012099341     
  -15.685397151419155     
   39.589014843947062     
   30.529991056317048     
  -26.168207733256445     
  -25.600849424781419     
  -4.7565035059359690     
  -38.449977085428458     
  -43.488583401275832     
   32.447341420889330     
  -33.391321563217176     
   21.152140392383490     
  -20.860012125937033     
   71.715948071459948     
   96.945706200122856     
   32.613033527595967     
  -16.798815756337152     
   38.268342005197233     
  -41.709456120031760     
  -1.1731173803656227     
   48.817508888952119     
  -27.689541255799327     
   19.169521404814585     
  -5.0783269547531829     
  -22.655380443732561     
  -70.870506657442874     
   30.933866965910646     
   3.8787481874362069     
   47.151947397935892     
   11.432682709804137     
   34.916665799938635     
  -3.2282148214389590     
   33.011334392996389     
  -35.187003803687709     
  -31.339249602685154     
  -13.655889451271674     
  -5.0393224233775073E-003
   28.467014221538093     
  -29.320356159325005     
   20.498062653931864     
  -50.667047929136046     
   85.905895820857168     
   14.732475838603822     
   26.378030095096818     
   62.595677593515120     
   26.125900982258031     
   13.135148617840931     
  -101.90701620512813     
  -32.439985309622791     
  -1.1015627745258081     
  -25.066473492869211     
  -31.367181485410658     
  -12.649980406684890     
  -17.431977957835965     
  -79.758426029119903     
  -71.518285992425376     
   48.299671947868134     
   28.000974224623615     
   110.24296474001024     
   19.290697103945210     
   86.255178625718003     
  -22.616525396552802     
   81.541060650429927     
   45.985585626721864     
  -57.571845748104366     
  -25.763865939917526     
  -8.8678423137593754     
  -24.180819792775210     
  -62.837821889251607     
   64.037250403819257     
  -70.282462256264026     
   78.848501779944542     
  -3.1383269405930410     
   111.36154815631039     
   175.18566171375656     
   62.255685890895997     
  -20.985371196982360     
  -11.836514759974273     
  -89.738947797148143     
  -23.888822180730664     
   36.217731637672543     
  -100.07234026838820     
   6.9772481270862148     
  -15.295045428776440     
   111.45893334261363     
   83.219273234357331     
  -48.249380016273768     
  -35.856251028753398     
  -168.12433225166097     
  -9.5058701363204232     
  -81.494335511617706     
   8.8472346306268541     
  -124.09686590570334     
  -3.7505825631403282     
   68.943707521611330     
   42.135996910153899     
   16.056893803157365     
   5.7873495648327378     
   74.502233459877900     
  -72.901236185346789     
   92.412917763229373     
  -163.26357571794753     
  -9.8281623666160591     
  -116.45213353802396     
  -188.89929889546042     
  -69.014695022481760     
   7.0280099494389665     
   69.124310519661933     
   107.21007547560609     
   6.6794786859127901     
  -12.275971185329452     
   130.80628714290185     
   21.586483032182322     
 -0.30096972109106812     
 -0.30049035224878379     
  0.58312091693399692     
   1.1742023827930643     
 -0.30751443007092327     
  -1.7031044300751585     
  -1.5912089225943395     
   6.0228203928525646E-002
   3.1758629408939409     
   1.1187203612621883     
  -1.3824612675673604     
 -0.77088876708551324     
 -0.64905340259110333     
 -0.13151788698528574     
  0.80360281577216652     
  -1.8636696831523576     
  -2.4719290149256317     
  -3.5515452246979802     
  0.32057653796906810     
  0.28983550853507822     
   2.7161141696293130     
 -0.14480024455845777     
   2.4542045732156299     
 -0.96945393760469978     
  -1.4088113761562537     
  -1.8797162039809117     
 -0.28338596289374463     
  -2.0700495233364555     
  -2.2259033470642136     
  -1.5304053298738374     
   1.5728456108773501     
   1.8231650416818705     
   1.8079002766466059     
 -0.71094717408502228     
 -0.85543817243448683     
   1.5450994200232264     
   1.8574616154950006E-002
  -1.6289091876694617     
 -0.84158923264892693     
   2.4201777017544277     
  -2.0861566589866847     
 -0.68180878658102040     
  0.10381242716385371     
  -2.1866605384314877     
   2.8059340946091744     
   2.7736077996327047     
   1.5273292817298045     
   1.8894691810753848     
 -0.46390846014951409     
  -1.6278491759234544     
   1.6296108309248900     
  -2.1634980440695153     
  0.38764894215129586     
 -0.42243366380660241     
   3.8134407829166048     
   1.1919966603552627     
 -0.47418524834627090     
  0.16005668695919989     
  -2.6795069692612792     
 -0.94969058608536483     
   1.4488921935522119     
   2.6991207191750659     
   7.3690797010531215     
  -6.4662544422894301     
 -0.92826279216294927     
  -2.1199790285762816     
  -2.7310978225877509     
  -7.9871302882485740     
 -0.42499109253353595     
  -4.1187133072483704     
  -1.7567565138679031     
   9.6216008374170485     
  0.73034026579316413     
  -3.8082723350954129     
  0.29200675770009887     
   3.5477761033264952     
  -1.3984393342100969     
   3.6008899491564650     
  -4.5094157298877899     
  -2.0448449095981771     
  -4.1324323210259317     
  -6.3975297163947085     
  -1.0320168108897327     
   2.7090192487864839     
   8.0845809587936639     
   6.5498642983827793     
   3.7712805967665797     
  0.33322412077379565     
   4.9139864295714641     
  -1.3105262487075169     
  -7.1970899181679711     
  -5.9909839404570864     
   4.6902475972518793     
   9.4742977855558266     
   4.9701982721362334     
   5.9138118522763019     
   1.0953952038945611     
  -1.4785022064236732     
  -3.6891857558112462     
  -5.7368997410403466     
   19.347193922158162     
  -5.9237237778571155     
  -7.0707802184171706E-002
   7.0228784854416864     
  -20.229044954616960     
  -7.0782107463500905     
   5.9828323694374159     
   2.6646510931221314     
  -1.5691919933836236     
  -6.6673950490882659     
   5.6634100744026759     
   14.099946963993537     
  -2.5757269809294878     
 -0.70623707285328552     
   10.342813187813098     
  -4.7211356020371777     
  -1.4631847158029696     
   22.199053973972038     
 -0.37698481861898026     
   13.052539594426596     
  -5.4093309422993228     
  -18.157873625598281     
   27.139114300750290     
   11.282456556753738     
   5.3150796685672770     
  -28.879330702315620     
 -0.50425334665937060     
   6.8461586889829036     
  -24.466589004516798     
  -5.9802446576069928     
   67.005113864250291     
  -39.812651494536127     
   21.157857718839313     
  -2.6299639677086764     
   1.6018640901194932     
   7.7867535033982413     
   20.974741354968188     
   18.723452163078971     
  -55.351957623909712     
  -10.487063332160101     
   37.075198269865531     
  -1.8746956641769426     
  -10.212469834876444     
  -18.842730406631134     
   54.821165724837911     
  -18.813808930497405     
  -29.889898991059084     
   25.225829843092729     
  -51.673465878572479     
   18.268550399923615     
  0.27604589321634437     
  -2.0260329514846838     
  -6.7106757598719895     
  -5.1139348120877290     
   2.6187096413925603     
  -6.4935864961735508     
 -0.71859627283498539     
   5.0736341827581999     
  -1.0331340957024988     
   10.026910258391936     
  -2.7169396397294445     
   9.5930322260438370     
  -6.9956612567745120     
   16.304269925434678     
   1.3490593936395374     
  -14.098204918794510     
   2.8161482825528785     
   17.065618932571546     
  -6.9077177405039238     
  -4.8766478076936144     
  -23.969743522722016     
   1.1134199176007336     
  -8.3431333593786761     
   12.558154493757900     
   17.058078368025576     
   7.5764057299538576     
   13.889655783576428     
   8.0835381135202073     
  -1.3277466722086937     
  -1.4152953672337270     
   50.871024946191056     
   17.014350537956087     
  -31.846629408128013     
  -62.509963752003920     
  -21.720388734653916     
   8.7998351107685551     
   1.2298317890499592E-002
  -15.605897732484044     
   47.699085047125365     
   24.255989694067729     
  -88.697249443326527     
   25.868129944155836     
   16.955565624585368     
  -5.1900486887252413     
   70.576496088486266     
   47.167327568093135     
  -55.621773123717638     
  -22.139068241208026     
   61.241901289898529     
   42.241328785247141     
  -65.059889355099429     
  -60.466357801441703     
  -4.0247272459649155     
   10.780041123510870     
  -90.483009000086227     
   17.651914228889630     
   3.8369188319220227     
  -107.25226031526505     
   26.063900868056859     
  -64.504096558709648     
  -2.0475766530364323     
  -2.5683782710556260     
 -0.75272268434713274     
   4.5238038150699857     
  0.93947142287914909     
  -5.9043378225660268     
 -0.82978954988033138     
   7.6670273525569774     
  -1.0456513128542300     
  -5.5974430241496309     
  0.19535022986172404     
   6.5974697180625785     
  -1.3754890221226439     
  0.56523910670491861     
  0.57576897022380435     
  -7.3992853678175621     
  -1.3412389682900709     
  -2.6323710290120226     
  -2.4883891218129595     
  0.29935612332969358     
   2.0706433679286187     
  0.99592673370157081     
  0.62571148581977898     
   1.5215608454611107     
  -4.6793442161763474     
 -0.78960836598583073     
  -1.4881559012186620     
  -5.1842795435245339     
  -9.6318973801155305     
  -2.9564162917567027     
   9.9503681335044725     
  -4.8512296538864277     
   17.691164405587429     
  -34.276936063272764     
   8.1352627361648437     
  -4.0504002494222702     
   9.6995847198507832     
 -0.70881597443882371     
   18.576452587782949     
  -4.5493349598578678     
   48.989742469386186     
   38.408034661796250     
   30.878497102813100     
  -8.4856298315674135     
  -34.797916572932785     
   47.525903560856783     
  -4.2883643850878146     
   32.350556910100160     
  -31.493431115820385     
   21.664624666863492     
  -25.145761486794196     
  -24.600218029028508     
  -12.816728263428212     
  -17.533872841002985     
   70.363746654571642     
  -3.0781366951444205     
  -37.673244525013310     
  -5.5876465652407470     
  -21.875115882343252     
  -18.570053254408894     
   4.1566597716699647     
  -23.413933631776207     
   8.6679928201686405     
   53.874585322650802     
   11.026070099764841     
   20.844220856727731     
  -25.444147046406826     
  -59.406441725584827     
  -39.293113874542946     
   4.0238092943770996     
  -29.377889646137618     
  -47.919634617642579     
  -27.314452915023445     
  -33.246925194309128     
   48.354196564038809     
  -39.643734025394942     
   74.710047128009307     
   57.518259850058186     
   69.642344995155128     
  -16.614497977506431     
   7.0613160632629226     
  -46.747542297023031     
  -18.399845748618311     
   29.109270905967890     
  -58.524238777491128     
  -9.6765341000255916     
   30.646607618953045     
   35.320152247749981     
  -69.047278329971576     
  -2.5875421348677525     
  0.23620891218180518     
  -8.7159303739776188     
  -6.4935991550865788     
  -3.5175641857906488     
  -5.9464870029995680     
 -0.81945446971080982     
   2.0203427009896151     
   8.7973585621787898     
  -1.7616585823977127     
   2.6730560671504103E-002
   5.6716267986727962     
   6.6904108841864920     
   3.5992609068034298     
  -6.0876161103751336     
  -1.2805988508518853     
   2.5102390787935636     
  -3.3146930504509569     
  -4.0575484656429079     
  -1.7155218376741819     
   2.0104017984345828     
   1.9101579755329974     
  -4.4413090706643352     
   2.3241817658207284     
   4.5337681016312770     
  0.51312594550817037     
   4.8529841174927899     
  -2.9665670189024143     
  -3.4673811501246363     
   6.0003728156949681     
  0.39568820287729717     
   1.2666411437701344     
  -2.0444497060354641     
 -0.90779603766712358     
 -0.41538501211503220     
  -1.6126227945296037     
   1.4252792002724612     
  0.51881030415946050     
  -1.7076203271327819     
   3.2390291111307958E-002
  0.70153792124411340     
 -0.39281771355035816     
 -0.23514461783883794     
  -1.4832708554425524     
   1.3837601022509129     
   1.5897205781471657     
  0.31516651922773997     
 -0.64381821357872848     
   1.8589257472898497     
  -1.5874564557508068     
  -1.0116830737156459     
 -0.37770709796276519     
   1.8307874392077747E-002
  -1.1930103886631744     
  0.87870027384411820     
  0.89163658524691702     
 -0.48082523201528948     
 -0.43774910216852569     
  -1.7097857900433555     
  -2.2107052645983418     
 -0.92157312895122268     
  0.27866792003937940     
   4.7520146227307238     
  -2.1673580657493696     
   1.5927438543019867     
  -2.1701976065491704     
 -0.41933383639226113     
   110.22341382233967     
   1.3538385686122212     
   3.7495523797032058     
  -8.4950940821263110     
  -11.777840654982823     
  0.18590615768361124     
  -1.6619689822060031     
  -3.1107191079375105     
  0.67780382910479042     
   80.847696914978613     
  -32.780207132228483     
  -3.0638776038477902     
   29.879969950207851     
  -3.6739101915996146     
  -16.456153858982780     
  -61.126465795672459     
   1.1467546888245579     
   2.4968050654296090     
  -7.9013110654568877     
  -5.1304763990700586     
  0.95571021049299254     
  -2.7062337543780695     
  -3.9303573026029293     
   49.142784559906943     
 -0.71987753194906201     
   10.194202642096556     
 -0.83262970331268138     
  -2.0460350924930673     
  -1.8175787915985206     
 -0.50413259458523885     
   34.543527718861270     
   2.3687166768277335     
  -4.8615205293687991     
  -1.9554915211925681     
   7.4352436575571428     
   1.4672384193374737     
  -6.4188189495946970     
   3.2342057882899193     
 -0.67960930776265871     
   34.968442337894672     
   76.004554391076894     
   8.2841936895638764     
   127.75995093121010     
 -0.86000095234305440     
  -20.293150352598602     
   111.96984559532984     
 -0.56850730582117670     
  -9.3714919794366054     
  -52.464195371953842     
   2.8130875037457774     
  -2.1839806865101985     
  0.42864643600805025     
  0.83419221152521916     
   22.163761598953737     
  0.54629269883879017     
   7.2166335788759719     
 -0.87953190443875817     
   1.6599411698383428     
  -1.0864371989557193     
 -0.43964086791815682     
  -98.585069666413830     
  0.64565910002430860     
  -1.8176546431527993     
  -1.6049733415822423     
   5.4836205764799626     
 -0.22469152662395905     
   4.5827669227127599     
   7.1872804952867675     
  -2.3575467176276748     
  -74.389142957820638     
   37.627109527937300     
   21.621834445952974     
   92.244500428667649     
 -0.67398755230934693     
  -7.0575086311667290     
   23.259995604060745     
 -0.23050140264459790     
  -8.8031818910243214     
  -64.550409971547737     
   1.0890528106000947     
   7.5361111460496386E-002
  -1.5778147072216706     
  -6.8731976831522834     
  -37.961847873153154     
   1.5533597677648741     
  -6.8059641192229510     
   1.7145459365144882     
   1.6442773031849371     
  -1.3963026545032957     
  0.36615378496931456     
   51.003727899878989     
  0.19394599346046978     
   4.3081161808279784     
  -3.3513314778341101     
 -0.66521096515045075     
  0.13202342087128213     
  -1.7957579905654455     
   1.2504237190556700     
   9.9602743604816232E-002
   99.483208013845825     
   28.820841784946314     
  -26.789534264346884     
  -21.052019485440667     
   2.4937351165030139     
 -0.33423961834507798     
   45.545190334042637     
 -0.83936764967193189     
   7.6466607408785858     
   21.699647365565628     
   1.0179775754686620     
 -0.82808526920135528     
  -2.6267881427486319     
   7.6129921600169554     
  -4.0487498213372284     
   1.4062868617579778     
 -0.23980766502676501     
  -1.6026703932596622     
   2.2427023317421177     
  -4.6015500507676022     
  -3.4052164145318664     
  -44.831204539608649     
   3.6562715224730327     
  -7.9811469483782229     
  -6.4973685557048224     
   3.2474373583754201     
 -0.14900527370264235     
  -4.1367068869137151     
  -9.2884023297871412     
   1.5380012227452817     
  -11.481330777672587     
  -57.025001070086098     
  -14.291421067249125     
   34.397267523600114     
   3.0173727395520773     
  -6.4825219857010703     
  -47.878426762987218     
   1.7806693163254339     
  -28.826871856742549     
  -3.2662825662288912     
  -1.4772366218121582     
 -0.80448545791741644     
   1.3423732624046250     
  -10.206873767577724     
   16.809967598492559     
  -1.0917735768925796     
  -19.052580119805054     
 -0.77398014757043032     
  -2.8178688282987348     
 -0.76562367681182508     
  0.43348719588714185     
  -24.907312561567881     
 -0.63672452480326747     
 -0.17617201659474135     
  -1.6868949328190066     
  -7.2672319425029892     
   6.9354760650503125E-002
   2.7948741250964315     
   5.1883450197408418     
  -1.4379516238701320     
 -0.21433315287627341     
   23.985378955454600     
   15.401972457762993     
  0.19482788525973596     
   8.5372739913361403E-002
  -7.8232774143306711     
   29.044198946029791     
  0.29310501078211548     
  -4.5113164932844523     
  -7.0202891276153263     
 -0.47767409618502793     
 -0.42924707637823217     
 -0.15265263799909498     
   3.1683090914322576     
  -50.483899948058337     
 -0.19438672791265196     
  -9.2141500804913304E-002
  -9.3255851545790844E-002
 -0.68373016025912781     
  -1.1214491149422832     
   2.2985128702647132E-002
  -36.523055257609371     
   1.0832606832144991     
   4.8356252573101672     
  -2.7252059235102299     
   13.128362509015991     
  0.80528793027556933     
  -1.0530470973038353     
  -4.2067698436857048     
  0.56765102346178142     
   20.553737470584338     
  -42.431244090935103     
  -2.2217362207801710     
   3.4982118994379201     
   1.7083801258298099     
  -3.5676018138651893     
   2.5687281462297102     
   8.8095374199269744E-002
  -15.085421828773862     
  -34.581393329574091     
   2.4916176120029117     
 -0.56700913150744126     
   2.6286169111284399     
  -5.5328274915600621     
   58.850023818098954     
 -0.60640469915622919     
   25.685119412280034     
  0.64228611444217065     
  0.22142962216011478     
 -0.67487559110059003     
 -0.40488397508780055     
   21.327478492069382     
   1.6533152921527114     
  -7.7736258684891473     
  -3.3938321585807771     
   26.870750089606204     
  0.34374009908917991     
   5.4544124216953289     
   9.4452661552476141E-002
  -1.2977150199918217     
  -72.132263825742939     
   73.892796604648737     
  -39.107098862240100     
  -76.010382267565817     
   2.4237813037573344     
 -0.36975053694151810     
   114.37765507732067     
  -2.9895439369505960E-002
  -21.143420482185668     
   19.010750414336101     
   9.1955626936492614     
  -1.5053592090451762E-002
   2.8906503519450664     
  -41.006113996220563     
   60.044301449261994     
 -0.16848632953274123     
  -2.7112446133886534     
 -0.11197346770271119     
 -0.93379119321639958     
  0.32447869415480168     
  0.25778490899974954     
   65.385513419781930     
  0.69079190289502546     
   19.798591537108582     
 -0.38993975705329459     
  0.14141821092185031     
  0.37792965166074655     
 -0.35443127137938524     
   2.1538247185042341     
  0.63953082590700017     
   17.497294480937757     
   20.837628586879767     
  0.56945921904099250     
   10.388104098681687     
  -1.8215847145229636     
  -1.3049201452166388     
   7.8656664099324711     
  0.40281292779490063     
   2.2415709482943469     
   35.406166765999430     
  -1.4683892059530594     
 -0.61704346978772495     
  0.62638334832700682     
   6.6263528337139341     
  -25.413428064997664     
  0.12956576811838133     
   11.118399455004020     
   1.0652754473894248     
  0.30494880675818076     
  0.17864248548236566     
   1.0722393084108359     
  -1.6079446503058850     
 -0.26555059314960938     
   19.557626930603959     
  -1.7371957689415067     
 -0.26089532121905079     
 -0.22690451574005871     
  -2.4807548360403429     
  0.48352435477512218     
 -0.45932601159734282     
  -58.061623177947133     
   21.174085606253989     
   3.5671830302767593     
  -11.497828994490806     
  0.71714313706460031     
   13.117389131458529     
   31.247530254132805     
 -0.32940707907444894     
  -8.5773782709118009     
  -2.8981766534754425     
  0.53622970196151920     
 -0.21412119732767146     
  -2.6674135953397480     
  -3.9603821787051294     
  -41.937975887054805     
  0.88669567452940268     
  -1.2251125669675060     
 -0.71737941054809484     
 -0.33319469827771592     
  0.57810654733057298     
  0.49931278810468988     
  -31.276135390310159     
 -0.51330576458993893     
   3.5912995151342182     
  -1.2988680349889850     
  0.99416274345213462     
  0.41530470954830356     
  -1.4203276683818840     
  -3.8571161680364425     
  0.89271785627340128     
   29.847959824071111     
  -13.373504390429664     
   13.685985782164888     
   62.747105716203691     
 -0.87260179668260118     
  -2.7026041521782256     
  -22.725292428367304     
   2.7609280433685289E-002
  -2.4005787975604367     
  -20.157828874169432     
   7.5458998878344230E-002
 -0.57149038725879664     
 -0.11584814659861223     
  -7.5710779220744167     
  -3.1993411742475169     
  0.57510252738089362     
  -17.608932860344307     
  -1.5345284852868368     
 -0.72258611459612987     
 -0.46341046392333052     
   6.2185802363531655E-002
   54.925612120364136     
  0.30265104957278455     
  -7.0712649188715186     
 -0.98578117869966564     
  -8.0817164029917041     
 -0.16182725536596387     
  -1.7847970570530043     
   1.2453302821395076     
  0.29578544570037979     
  -23.624990412419017     
  -17.764087661371189     
   4.3380248937498456     
  -9.5758920300606398     
  -1.2233669027577598     
  -7.6161463779018339     
  -12.529246269530974     
 -0.31053838518520049     
   4.0393300040134843     
   18.093973035360516     
 -0.23255144628886967     
   6.4064489656390250E-002
  -1.5621676556303197     
  -1.2651030436866943E-002
  -11.580071613752304     
  -1.7086545303442391     
  -5.6758627114559745     
  0.72371235593916738     
  -3.3681845373100603     
   1.6737007934934423     
   1.1508814139933632     
  -40.034912238373344     
 -0.84935711148830551     
  -3.5931393010921404     
   5.8640612946980646     
  -5.8736488066980233     
  -1.0612430304611289     
   1.2250472326024500     
   7.1639513038419311     
  -2.1574106634964481     
  -154.25175022694566     
   17.237171029519423     
  -17.059772478519882     
   18.037015665794794     
   3.3010766051044289     
  -7.1071032290193550     
  -35.763694317252359     
 -0.47337539087410269     
  -7.4019061841470206     
  -53.918964655392855     
  -2.7500806843257153     
   2.3954446397281277     
  -2.1804914298940696     
  -13.524035662709878     
   26.284225361907680     
 -0.16159932259683654     
   4.5135344665945780     
  -1.1991205546555161     
  -5.1959161198268260E-002
  0.13801602823162559     
 -0.70060543015452503     
   36.597839803024122     
   1.8898719763923659     
  -6.6858935488019009     
   5.8263303708086305     
  0.60683098895651333     
  0.83209219580094107     
   3.4289827112536342     
 -0.47398032284412883     
 -0.14634315761279601     
   9.9582239219848052     
   94.721006382187809     
   56.654378120195254     
  -13.830611344751524     
  -1.2425778115003243     
  -1.0479168028479586     
   42.501550910820413     
 -0.58017980148035919     
  -11.548769670834311     
  -43.298415937172784     
  0.36688739915847929     
  -2.1920541749594893     
  -2.2639649602074670     
   7.5376662514804451     
   56.956316762037957     
   1.4885071490688395     
   26.112458812744212     
  0.20337354756515905     
   2.8974339210627513     
  -2.7714930671612539     
  -1.7004805438679227     
  -60.649722955421772     
  0.57605322504439083     
  -11.169613118636244     
  -6.6819390607359050     
   1.8243380411522132     
  0.19275997032829020     
   4.1984118146903242     
  0.19873810265628941     
 -0.49821963051248425     
  -15.138244736161388     
  -85.733705776410758     
  -16.714504293656297     
   127.86013160646796     
  -4.8147736668242533     
  0.31240635758338331     
  -65.735128396155034     
  0.77404932750937883     
  0.98664747038510825     
  -14.593559561059841     
  -1.8839709812076866     
   1.0265219047930640     
  0.94065041966655272     
  -29.214248469510995     
   54.510818417113519     
 -0.19613602943790173     
   26.739637003174352     
  0.51259069965356441     
  0.20566608661865873     
 -0.46763560582069608     
 -0.31149524231082842     
   16.849695475119589     
   1.1843367105021174     
   1.5020694295884203     
  -3.9878269057770885     
   1.0750919755416912     
  0.30050517470572941     
 -0.83774681914811666     
  -4.0681609789474154     
 -0.76773295798036267     
   101.01616930497120     
   3.5509792072431039     
   18.577890281084997     
   34.432562439801707     
  -2.2907332015706601     
  -13.062552681807139     
   64.876236321603045     
  0.12061443933713432     
   12.705824684359722     
   40.946655329375055     
   3.6697992324474883E-002
 -0.60230936362131493     
 -0.97029392186157126     
  -10.019884879059097     
   23.165387341573165     
 -0.28412565428427594     
   6.3676330679276862     
 -0.72702400258110111     
  -1.0318363539103368     
  0.34971198977920737     
 -0.46310313745660292     
  -17.970270035440194     
  0.97549562963652436     
   31.203126301951944     
  0.74992587380050979     
   1.8196624347950259     
  -3.3014289680354775E-002
   1.1764105866106782     
 -0.46877247601605598     
  -1.5933304930502479     
   23.538844026790642     
   9.2700304483737401     
   24.351504844863022     
   3.9870718642957637     
  -5.2105745348914665     
  -1.9745798991472088     
  -62.652928461414120     
  0.63174221910466355     
   4.4650684148269519     
   38.960764355596758     
  -3.1744031910809389     
   1.2385391803403694     
  0.96433857058141881     
  0.67671891407426665     
  -3.7718235421500990     
   1.2776722962713283     
   18.361117523748018     
  -5.3205604245574120E-002
   3.8659982352049225     
 -0.36505987873400808     
  0.51500631682125197     
  -123.70074054881104     
  0.75131147699028100     
  -4.5049244358979221     
   2.4051369738199808     
   18.491305362713835     
  0.55269789044303619     
  -8.2700880264804585E-002
   3.6436340269199516     
   1.5375197935253699     
  -47.251022167403967     
   34.327917536102682     
   37.646433494098858     
  -11.500090096145252     
  -1.2365649785073263     
   11.843044708949646     
  -35.084793713895621     
  0.49794604262587921     
  -17.181674336409252     
   85.037382094755287     
  0.37751244490454128     
  -1.7047892317286251     
  -2.4536248342687359     
   3.7551965307231554     
  -20.549606637138595     
   4.1182104995176170     
  -5.0989495666276010     
 -0.21113064852118030     
   3.3445188634205842     
 -0.70025042325864884     
  0.43465141493520559     
   61.646549237778544     
   1.1393164765071138     
  -31.292720718292337     
   2.9805091266306163     
  -4.2169717397982556     
   1.4517246426104000     
  -5.1685891998545834E-002
   5.4826589211916321     
   2.0109811933440658     
   54.556811385263401     
   51.949802395003175     
   31.615331699078798     
  -38.045326030634364     
  -2.5220371391957159     
   12.561599787002253     
   56.639680290212766     
  0.30903041468854220     
   31.148386202978632     
   37.425757120792881     
   5.7282581846568563     
 -0.32059725083044521     
   2.5284166307339353     
   4.1917905866021385     
  -63.612469622696068     
   1.4653812565915723     
 -0.10781066537318383     
  -1.6062250723093119     
   2.6866888328643048     
  0.25101662819930898     
  -1.5189738135274251E-002
   69.306138155037630     
 -0.52223835020663401     
  -23.014239440823840     
   5.3956915111340641E-003
  -2.0469300363575913     
 -0.83829754398216183     
  0.64669435006594933     
   1.0071900154558244     
  -1.0396032124408092     
  -159.28098744449204     
   58.191104807768447     
   8.5938312990133578     
  -20.155439043741488     
  -4.7493366123900751     
   6.4441528706853939     
  -54.926625979511179     
  0.24251116556633853     
   13.277273599832961     
   106.72931320267375     
 -0.36413233009166129     
  0.29047089108556490     
  -1.0636938335409867     
   14.847819855151373     
  -91.662731438754733     
 -0.19212520028358027     
  -6.1194248610794864     
  -1.0000572631566349     
 -0.38152483117697311     
  0.49603567735386400     
  0.87617664572317566     
   44.202679780996043     
  -1.4826024355778332E-002
   3.8399410503591751     
   1.9396736032859467     
   1.2451176874444692     
  -1.3569641095135827E-002
  -1.0200856296063927     
  -1.9707240164541409     
  0.62666411053950155     
   79.415885737480536     
  -6.2152473922425582     
   32.212636956874086     
   57.538321431101309     
   2.1501312830802970     
  -4.7585724776912421     
   11.586158947429192     
 -0.12894180201387889     
  -9.6974182462785556     
   48.958216343764036     
  -1.0846269740664929     
  -9.6331420489711508E-002
   1.0939411700809787     
  0.55793838953812025     
   53.906259718661481     
 -0.16959266708849402     
   22.171748392506551     
  0.91118133120186739     
  0.98143385495594959     
  0.51974481949171458     
  0.11575645062938028     
   2.9126665649556167     
  0.53622932869558848     
  -13.661187590578731     
  -3.2736820510904789     
   4.6126105508813620     
 -0.32992992985732683     
  -2.2616792062860331     
 -0.57909759630176216     
 -0.70197047108676991     
   20.909012837266005     
   9.8147257922127409     
  0.55045590588516957     
  0.16768896159006005     
   2.6349483404599905     
  -3.3404335175297217     
   58.995452120599616     
  0.11221837189701254     
   4.6263715894829520     
   9.6842818646431610     
  0.84245617908182691     
 -0.10622573849224010     
 -0.78170988478125847     
  -5.8830528602178784     
  -10.885489942364627     
  -2.4269242016449257     
   17.496576942954650     
   1.5115161523307421     
   2.7404314367918730     
  0.18316643444521805     
 -0.11976999741605485     
  -15.532305802843556     
 -0.66230641714583682     
   2.5252752665383946     
  -4.6858345605987628     
 -0.65321606960013068     
  0.10689909319245966     
   1.2645166185091135     
   5.9671970849141758     
  0.61363250151025084     
  -50.490088795916748     
  -16.569526962042314     
   12.227669061489104     
  -79.349253098613374     
  -3.4396385985929219     
   9.1943477570857990     
  -34.605652120671209     
  0.94564867518830331     
  -8.5702068586354034     
   29.391294262652682     
 -0.84238703727125153     
  -1.2387554642307128     
  -1.5169448888861494     
  -23.426944854499176     
  -39.488010512308961     
   3.1919411660786094E-002
  -3.0184551976158178     
  0.68722073251783899     
 -0.97420869872429616     
  0.14740511638839704     
   1.1202998808473983     
   1.2259634265216384     
 -0.44508659547274698     
  -2.4555627513500951     
   2.9994472841394031     
  -2.1717437463258333     
 -0.54258360957813456     
   3.6587957376194389     
   2.4974398474240358     
  -1.9245636089039619     
   19.546871996310614     
   60.952789784224350     
   22.052303447064453     
  -57.446102864417547     
   2.3837195203815829     
 -0.84915748197714080     
   87.338626824547575     
 -0.36663183308955283     
  -6.3981176223649641     
   28.443259247449795     
 -0.12683629738674213     
  0.60866998916415893     
  -3.3954449348374078     
  -16.111856665432260     
  -11.743080063348454     
   1.5498279220633269     
 -0.24287391208024120     
   1.2486178991735781E-002
   1.9150167800291302     
 -0.52854105535586948     
   1.3109609441028637E-002
  -10.191704860464940     
  0.30375383325349603     
  -1.7497088475222791     
  -2.3761201835453849     
 -0.71738950968777127     
  0.27024181818977011     
 -0.29134586777704019     
   1.5968270545481644     
   1.9220713584747622E-002
   56.166322967849872     
   7.6644454292373414     
  -5.3243168582544103     
  -52.329126520797637     
 -0.55027750625911065     
  -6.5089921342348882     
  -32.326226587029808     
 -0.20623902373910563     
   12.874035664607991     
   20.898268315534235     
  0.89430326159218387     
   1.4627314413267294E-002
   1.4976904490989897     
   7.6735683101963543     
  -17.262692280520454     
  0.29089928543243126     
   21.601444341234139     
   1.7014856336246571     
  0.51787994082063959     
   1.9957918540661042     
   1.3864633080128925     
   40.483495892876782     
  -1.4029584165274687     
   14.793710505585176     
 -0.80147650001649817     
   7.9687037639918117     
 -0.76576566556897818     
   3.9073144313123551     
  -3.0625925193117576     
  0.55791493261158986     
   37.580916546890670     
  -12.585428892611615     
  -31.059914870570719     
  -8.4591682283977256     
  0.93943722310309341     
   16.838497645024972     
  -26.771062348500706     
  0.23703602569256016     
 -0.18950974275583538     
   4.7617431555953269     
 -0.12007880448903714     
  0.24764329629423817     
   1.1943280044660041     
   1.8240699553924524     
  -3.3795122268441014     
  -1.1766273410670482     
  -3.8500284790116375     
   9.4127546813751503E-002
   7.6011889197825880E-002
  0.54400407060590550     
  -1.6065579614357171     
  -49.376473992425446     
  0.88954950719958947     
  -10.832440207939650     
  -1.8266760250123231     
 -0.26484737250360763     
  0.66881283614535880     
 -0.55077206699731474     
  -1.0613830439956047     
  0.78325258304205847     
   13.718839022329792     
  -17.967538025253575     
  -4.0859365596751047     
  -84.609792424118865     
   5.5011542025550737     
   6.2179470836922954     
   32.363517372958277     
 -0.40717536309556229     
  -17.177339317853811     
  -54.041229490958635     
   2.2953404643929156     
  -1.0538671783295313     
   5.4896977036679049     
   2.7722904302256524     
  -25.636751644966292     
 -0.75107910124265997     
  -15.156248958195555     
  0.24468160199003230     
 -0.56569103342165805     
   1.4623635878841834     
  0.19130315242877971     
   116.57626440653380     
  0.12699218722745836     
  -38.199023932332899     
  -8.3671879515069154     
  -2.9260889508065371     
  0.43530826275252743     
 -0.81291747297589501     
   5.1325163139637544     
   1.0011393450457711     
   100.13323535312114     
   4.0609246414657694     
  -3.0053363406584572     
   90.916301584094157     
 -0.21491051211507006     
  -2.0399224123408577     
   18.656993773531283     
   1.1079856853921619     
  -2.4171183210179819     
  -19.968858517738106     
 -0.10264326781077195     
 -0.47406829138763162     
   2.6676146841709093E-002
   3.0693183779353936     
  -40.346013098217881     
  0.76942955096341870     
   33.224081159121397     
 -0.65659975890223976     
   1.7315567511316730     
 -0.58834861209988887     
  -1.3403819882124302     
  -93.969546348220391     
   9.2336142888629485E-002
   26.247872081524349     
 -0.64003612335147231     
   16.330046311722381     
  0.85754726342329179     
   4.0643886389997856     
 -0.23424918079154772     
   1.1565053823217968     
  -117.71006480377056     
  -139.80158935989172     
   37.699481090526284     
  -37.905776005364885     
  0.74904641029816887     
  -12.280771127306631     
  -74.626636817371818     
 -0.37888108003980159     
 -0.20819302867303621     
   58.692254596383393     
  -2.6101651642682455     
 -0.81063897849753219     
   3.2680219456947905     
  -8.2319783723245656     
   59.241328094411351     
  0.40925985454286695     
  -4.0941330339312465     
 -0.87529562178490317     
  0.69032826859904906     
  -3.1875723689020350     
  0.83961980179431539     
   22.864224950213362     
  0.62441858443107923     
   5.0169570748995902     
  -1.0338118244913659     
  -3.5727696794140114     
 -0.19839805787440226     
   8.7475928924300206     
  -4.7839935759361767     
  -1.4453626399979236     
   64.813065956399001     
   10.767096267534416     
   13.820274507510080     
  -30.613530462541846     
 -0.23548671881828373     
  -6.8056095804492713     
   12.540380112172832     
 -0.19154159441673455     
  -1.4673105746401054     
   6.9830971993470508     
 -0.34993143744437627     
  0.62257069399403775     
  -4.0701319325671079     
  -11.126381321355229     
   18.698360436783265     
  -1.1392603709480400     
   13.782992356253821     
  -3.1300019970227551     
   1.6483071230153179     
 -0.79017111639659499     
  -2.6800501133951213     
   132.75512459281467     
   3.2514688532349201     
  -25.166706428730002     
  -8.2636902972831265     
   28.126546629111999     
   2.1241054295842243     
   7.4569487578744447     
   5.2054584898928749     
   8.4871539051753833E-002
  -276.86987680385522     
   7.9820720917522259     
  -45.726995501170791     
   26.716977166977443     
   5.9326544852547567     
  -15.465487654973948     
   102.13127991041459     
  0.81231816727731843     
  -11.020667583321062     
   22.779357853904507     
   12.707838517881061     
 -0.15071952281634460     
   11.944766258460977     
  -38.217642729478968     
  -120.81273639638485     
  -7.7569896058919934E-003
   3.3540278882397511E-004
   5.2566547628792641E-002
  -4.3492595839799185E-003
  -8.5628894508905061E-003
  -2.0219647179054862E-002
   1.5595796103541387E-004
   1.8693749497790856E-002
   5.5803717962294363E-004
  -1.1748892347006610E-003
   9.0366607246942566E-004
   4.2198279287222584E-002
  -1.6910312487244235E-002
   4.3211685571578175E-003
   9.6207167197660641E-003
   1.0861013295982051E-004
  -2.9867253875456417E-004
  -2.0267411755101874E-004
   8.3367085153786423E-005
   1.2001858971337359E-003
  -4.0351697384963822E-004
   3.4080635577045609E-004
   3.3636715580412507E-002
   2.7938700176458162E-004
  -1.2127816425943427E-004
   4.8958846742818410E-003
  -1.2536893047480620E-002
  -2.3217675547097943E-003
  -4.4412943162000339E-004
  -1.6619279615794199E-004
   3.9616512307550519E-002
