  -215.99790016131345     
  -167.54690462139345     
  -211.04402457374263     
   115.09599050528082     
   100.64044729350253     
  -4.3073153901121835     
   81.272071756351565     
   358.51439645519474     
  -210.81759713248584     
  -119.95388294466488     
   121.20181337075353     
   67.262605845480252     
   52.133663718478125     
  -183.75958972067107     
  -32.792258126930797     
   7.9412401644740847     
   52.717492099278111     
  -235.87327514254207     
   21.261341831845844     
   511.47943394627072     
  -37.971242436290005     
  -54.067953122277821     
   202.36738262114361     
  -176.12055368464459     
   54.567539853635807     
  -100.16425082482093     
   143.37438349340113     
   10.199581011501031     
  -330.51977758610923     
   4.8459152527984424     
   15.120346058566486     
  -64.300374237869676     
   57.096541318149619     
  -28.511456885197333     
   89.656729648570035     
  -81.197596269082283     
  -68.799531969517375     
   7.9967975510196396     
   58.852682401409204     
   115.36142595786188     
   33.800594846675772     
  -30.247955538182623     
   61.135709321566445     
  -32.982902482657970     
  -132.15047626585095     
  -2.7556314630363543     
  -28.611035947871123     
  -13.234721737629648     
   8.5412945183221307     
   48.356465368322013     
   70.799389532387963     
 -0.24241497353252714     
   59.929705312781060     
  -15.361143976499212     
   22.967174042652964     
   40.763253316951534     
  -30.234022725900406     
  -4.4117471299185480     
  -85.051774297546459     
   51.404545316820837     
   316.90208110088849     
   234.54855658424543     
   292.64880503161783     
  -101.30753680040775     
  -149.40871196829801     
  -35.390918621368229     
  -81.831240981905069     
  -462.53599882685705     
   213.52550221249118     
   167.53080018614583     
  -54.331324598708548     
  -212.38720137539684     
   4.8690340925346431     
   114.67727136196812     
   38.414496510766710     
  -77.501022969200775     
  -41.072835934352923     
   262.99513222629798     
   35.493701724566158     
  -570.42946471869936     
   71.758355978471997     
   87.491829538399841     
  -222.69200404202431     
   165.58545082843028     
  -55.129775369407241     
   3.3368298717225167     
  -140.92359822795075     
  -10.858748461701458     
   371.27155903147445     
  -51.687148166966189     
   409.07015873897956     
   576.70374878128325     
   241.27924807965371     
   24.039892662454033     
  -573.07777401262115     
   231.42755448930379     
   176.24592051553438     
  -611.04099073456200     
  -13.905823057710339     
  -239.59201173889107     
  -28.461443167513998     
  -343.54156896845944     
  -99.963988691479400     
   67.905853984539718     
   539.00602438605063     
  -220.33344271795539     
   129.39170574559449     
   301.85246788639154     
   101.52084448971304     
  -811.39230844584495     
  -110.60692788623993     
   122.47403795633956     
  -510.60353925537737     
   175.41849829520098     
  -170.97334098201100     
  -318.10968297156694     
   36.283921656782546     
   36.747905873672494     
   730.51193135568576     
  -335.34954111956915     
  -576.63349250924603     
  -414.55660896768444     
   34.078956087287075     
  -192.55323660969691     
   68.057719864837011     
   586.17338668621710     
  -62.488255115933427     
   1136.3453691564710     
  -72.848476897510380     
  -885.14304387435868     
   167.05266210918828     
   540.97172940624625     
   146.80560233199262     
  -254.80909209096225     
  -43.280075634396894     
  -110.50204375224445     
   478.79229852354291     
  -745.96315395181443     
  -312.29074790667994     
   572.10754442215659     
   195.88954085452187     
  -341.80299793663568     
  -393.90200876679421     
  -259.72932270002354     
  -317.81479019083122     
   380.55325752866207     
   763.22230780402924     
   410.62872959367064     
  -416.52564272157389     
  -8.3804706694528122     
  -259.48494639068838     
  -379.67828445832384     
  -387.76358085321152     
  -114.18821211873609     
   326.23749225085874     
  -57.182119382153729     
  -162.93361077563603     
   355.62372644757244     
   97.792381298917590     
   196.78498985337183     
  -338.21372339166891     
   486.33466209665522     
  -148.65415686051747     
   405.36353244232686     
  -224.20320697134591     
   462.83575784474846     
  -249.85052803556198     
   52.723741454881065     
  -353.60625083302705     
   264.54995571478145     
  -115.90524724072887     
   8.2231101382450422     
   253.24288836475719     
   131.20599983570798     
   204.87481949764930     
   386.59419649375684     
  -195.00413954725857     
  -107.73476396595797     
  -270.64528682193543     
   242.04348749771927     
   164.03095701574640     
   130.93755056318994     
   56.730520441946474     
   239.19149613091392     
   88.001970171678323     
  -342.72932103604535     
   78.605135846387540     
  -319.37135257010522     
  -185.57021510179769     
   286.93011047275377     
   245.57684965746822     
  -271.41975940704344     
   84.831646128984502     
  -335.27281247483671     
  -83.242612877101877     
  -205.42088947521782     
  -73.021528863137050     
   3.0169125114482922     
   274.37025348715969     
   213.27036125431655     
   34.051469097992346     
  -5.7587680811873341     
   344.75668253233846     
  -153.89686914082702     
   69.903374546217705     
  -365.69174495786245     
  -148.54462919310760     
  -115.97699004094906     
  -125.30466447111183     
  -27.314526038634380     
   165.23464969172991     
   32.089099898159837     
  -62.169937574999246     
  -20.804376385032196     
  -1.9865794122275751     
  -45.734325643261727     
  -57.890589836624542     
  -115.78839323270839     
   27.970057967217304     
   127.83479008924709     
  -95.307628604345567     
  -7.2985976784551241     
  -4.3254588182579132     
   130.01722933366315     
   37.426875213052874     
   123.41004579075796     
  -95.621283661599861     
   147.77886446801631     
  -121.88754465413714     
  -133.47457818201349     
  -45.599254005322074     
   112.22137369728038     
  -43.774793061168197     
   105.06438738324142     
   102.49895682784013     
  -49.523103612261743     
  -89.638084020318743     
  -75.392939984946523     
   68.653660542796999     
  -62.473517748033181     
  -11.203014269545839     
  -16.204328839111575     
   63.719254801740746     
   28.693259938610503     
   138.64838955143568     
   20.526106750672422     
  -50.760122923046005     
   49.828854300792095     
  -61.786705515237493     
  -51.627414188455511     
  -8.0306072992631528     
   59.320406082651168     
   198.81181420382379     
  -105.97184163093559     
   43.630979483197081     
   12.905692379062467     
   6.4181877679380328     
   13.886507755632190     
  -120.69634249648784     
  -162.69468198183012     
   30.315707540344700     
   110.88634285444355     
  -12.420637518800417     
   46.954003861528562     
   20.587781020411271     
   9.4009586515563299     
  -15.896886891950389     
  -41.288669606498907     
  -111.49455298157746     
  -166.63076073218986     
  -29.305949055199076     
  -56.211765013772208     
  -46.035313878715328     
  -23.714384578236899     
   52.235340449047577     
   82.206506102744115     
  -52.598451068716855     
  -2.4869933350559017     
   72.802350930720365     
  -80.050534824197555     
  -60.542544488008943     
  -10.230130845542552     
  -76.802912934267184     
  -5.0066452816066285     
   19.658409002062989     
  -30.856988151798433     
   10.578283971411036     
   8.4469832381567560     
  -64.931094484118120     
   62.813387292159113     
   14.473390122133303     
   6.6946848707798345     
  -57.127905903808653     
  -30.191764602716663     
   36.250630168340521     
   38.536956179223814     
  -83.501181635719973     
   143.94901146443763     
  -163.29159468087002     
  -8.3671347025985785     
   2.2451190523324325     
   34.889383461521319     
  -161.65431647623799     
  -80.661235917661472     
  -336.28939161031229     
  -43.633375378568708     
   103.32053789840627     
  -151.81795507577320     
   141.05480955930474     
   151.69571276164677     
   71.580795529027640     
  -161.33476258539295     
  -495.75815262342400     
   264.71063697707768     
  -107.85764711579291     
  -11.409830880133878     
  -23.119002313594791     
  -26.765301518613690     
   266.33682002077956     
   372.52428296771586     
  -69.294157878501011     
  -248.87088192766592     
   89.126020983336801     
  -93.098753529020172     
  -55.655557490605133     
  -8.4048581949417667     
   34.768679638380185     
   58.886669575314514     
   266.17029176259626     
   365.52037232209614     
   112.41924755489006     
   191.25319757758743     
   127.94599076335778     
   69.278410028000749     
  -191.94600993906047     
  -221.36722995159809     
   144.62252473200158     
  -3.5213598563746267     
  -189.14163863224985     
   248.30226757005295     
   145.85336768995069     
   14.521263073712294     
   170.59623455123349     
   57.316051474354417     
  -93.130161082821829     
   64.566623852656818     
  -47.027518861949410     
  -7.3506017040616864     
   174.88890947381188     
  -120.82341730883179     
  -52.976339403995155     
  -93.621890665703361     
   157.05944064055635     
   74.032507712808254     
  -109.29707173396010     
  -114.91585276056095     
   232.81280575288721     
  -365.51857480245883     
   440.85842960547478     
   48.651568433350505     
  -129.25300166709124     
  -489.95926317353292     
  -221.52168596221682     
  -147.07895694002417     
   492.66331088558212     
   378.36858209513110     
  -156.72013386592144     
   64.772435868234581     
   370.86929939761029     
  -600.20595796499742     
  -180.91629720603680     
  -73.880282714521428     
  -212.12619634784954     
  -232.91689789527774     
   321.09400727694742     
  -59.266296316447999     
   189.10628924770538     
  -60.697795812334242     
  -216.44206257068186     
   125.84239231595707     
   122.50499841611682     
   376.24346751918910     
  -344.64713159499576     
  -154.71007169231763     
   268.12926124032816     
   230.02511419725960     
  -493.21715649148825     
   652.31534234237483     
  -722.97354747074974     
  -11.428576155626372     
   1.3068237602949215     
  -28.747406856997493     
   112.23642010933708     
   59.104370626243316     
   253.49567152233072     
   26.383493424713716     
  -60.829190309591233     
   147.56645829497214     
  -93.588200471024578     
  -111.59817832740387     
  -106.24811059638334     
   136.64935008941134     
   370.06498595528097     
  -197.96535882504557     
   81.704403811568099     
  -16.163211794415169     
   28.293565192648018     
   18.037106368680867     
  -198.18644121551299     
  -240.25763196193958     
   32.681676476857028     
   174.97834051854707     
  -115.87015655598856     
   50.018304131766229     
   56.369535377214007     
  -17.546920550920600     
   3.4089719182152942     
  -5.5672945108032996     
  -195.78232598852685     
  -249.52016727602191     
  -3.9152962065825765     
   27.399788812480413     
  -22.529653856414189     
  -13.525054539524218     
  -99.219124853586081     
  -11.395782982756046     
  -8.1288605803317555     
  -70.097718141563817     
   38.703995608993196     
   26.002331299500906     
   79.261323763341679     
  -97.952943411322963     
  -90.807981452439662     
   96.933206058184268     
  -58.178799904532852     
   5.4276800038091695     
  -25.430488105040872     
 -0.94287559752969408     
   50.574402423676169     
   44.309602490265952     
   13.202625328118092     
  -45.745652290412011     
   87.226344437242204     
  -16.952772114857332     
  -31.443252882917854     
   14.904542443266658     
  -21.475711445351369     
  -7.9252374738122757     
   88.823034914181989     
   88.330671376901677     
   27.307234389817300     
  -732.16925122179123     
  -143.53174842372022     
  -234.45530673042953     
   474.35638316825225     
  -3.4524348429737524     
   269.57848246006739     
   49.477983459606648     
   561.17401472955112     
  -765.33992698772045     
   85.070059364649168     
  -529.44897654911847     
   191.20199978005843     
  -135.91854018255825     
   602.62592151888020     
  -164.45802694248110     
   442.59451209040554     
  -190.84484866649834     
   352.82157594613005     
   378.92462727973623     
   112.74581625346914     
   624.72729530245135     
  -212.16896001873064     
  -245.64343674641279     
   306.26198029075437     
   84.043422682453695     
  -445.83507680613349     
   686.15730414685243     
   222.35045548182515     
   477.04563722484141     
   2.5122918749234340     
   784.28372681245173     
   228.95977489875185     
   237.40821191642951     
  -668.28167954517335     
  -259.91117871393931     
  -102.60664226738344     
  -121.64175782821000     
  -569.93207433002192     
   898.66223021569738     
   78.751069135385904     
   342.30636790868499     
   29.687395451175885     
   274.02632123831256     
  -604.14049234294725     
   104.92580956246348     
  -416.00002290576890     
   180.88383997008773     
  -48.617091664632504     
  -265.84462922153506     
  -160.01768949744155     
  -672.90680406445711     
   402.20161291414104     
   258.46750030035457     
  -401.60360529311123     
  -219.36374616584843     
   635.42451156709501     
  -836.43359142684869     
   361.51082929676977     
  -292.48754760974361     
   38.797214755863841     
   308.98209563068906     
   34.312561775130625     
   107.03165151330599     
  -142.88027094776604     
   62.785077821957131     
  -104.48139959235588     
   7.3839081027218940     
  -254.59523608347911     
   304.61485491028577     
  -31.601957394114898     
   279.25867842157942     
  -142.38906853935833     
  -4.9859653235563313     
  -225.68794898723348     
   119.24501850596188     
  -186.88122998193509     
   55.037715499705406     
  -212.28237546237298     
  -184.70571352471370     
  -27.686854526338216     
  -248.18991108512759     
   36.844805518636008     
   93.431519944662156     
  -87.870990421770969     
   28.617138897982230     
   117.25998105436729     
  -289.79495429834571     
  -171.39615456563465     
  -214.18063468353208     
   90.625456770529510     
  -11.554515165798181     
  -29.513118472203782     
   12.386614252856392     
   139.48736321673067     
   21.865337943007511     
  -18.714358154448856     
   86.878491040282526     
  -75.469690429206864     
  -34.650320747544143     
  -97.684751494031744     
   164.41527821103475     
   72.107286267393363     
  -52.872202657264161     
   47.335670553102631     
   44.384075824541156     
  -1.2391089015299694     
  -11.119506775050272     
  -155.71145235607062     
  -39.238234087190278     
   5.6861876385004360     
   56.532162436518185     
  -94.524393818527471     
   38.937913365731205     
   63.154200029908040     
  -48.894042075365604     
   60.044884940585952     
  -18.138134772774588     
  -100.49071018647356     
  -152.89068584542068     
  -12.257848845645139     
  -7.1574452767431396     
   14.499888749920684     
  -3.6318528431136539     
  -28.204629084990763     
  -31.896601304960409     
   5.9426753620874760E-002
  -9.8504360175438226     
   12.503223729091816     
   5.0034991052321489     
   19.281214496530470     
  -23.788841035301875     
   29.837912894106111     
   21.685420574642745     
  0.90819852486569463     
  -17.118708096312744     
   2.0376488772010743     
   7.4394416946851472     
   40.531839977462191     
   25.505230567797263     
  -6.9530240476038463     
  -5.2958661922881802     
   28.538876446982503     
   4.5278012764521147     
  -20.654947871775896     
  -25.479332071422192     
   29.403351916966393     
   1.6618967324973668     
   39.699814732642466     
   16.907368530465160     
  -323.56390390229660     
   22.953404111968013     
   138.73565724733061     
  -1.9866371130533207     
  -139.58715159033966     
  -21.975633536809905     
   200.39362539568836     
  -167.05901175596347     
   189.77557710011459     
   21.788106325586138     
   62.437081275489739     
  -333.01528550555065     
  -124.46551110212938     
   32.982697336093366     
  -81.758551496676290     
  -159.10145481568176     
   42.106444840813239     
   46.336092803110915     
   555.54137094597036     
  -95.709975071695212     
  -9.4244862845879247     
  -78.099341592151220     
   183.20064905095168     
  -82.573637841452154     
  -163.58624344757266     
   242.25505663871712     
  -152.69553660049772     
   43.690699965363088     
   150.53669057904847     
   327.71520334593157     
   243.14455632904117     
   35.392831406162735     
  -127.51063908114945     
   79.779022935993027     
   120.90284618225135     
  -248.65280719290038     
  -74.579506151183651     
  -237.82132211544351     
  -58.047069837950986     
   354.54935788950354     
  -66.820869160475553     
  -12.094868715629874     
   7.5094381252399591     
   67.173547745409110     
  -41.690836369957502     
   143.07997497729764     
  -215.56605707637436     
   198.18394851498752     
  -103.58147022285077     
  -3.8802785549161372     
  -60.828097365904945     
   129.86363485160152     
   190.02632138693457     
   86.758631104725765     
   213.38788670598476     
  -181.81368267753754     
  -229.71177398085973     
  -176.66904420395491     
  -40.718998879575913     
  -56.234128977730236     
  -8.6507776748808443     
  -12.974852644058643     
  -8.0764575187565981     
  -13.409904771437500     
  -16.907291705115650     
   8.6233062117938157     
  -29.967173524596340     
  -19.879054660123145     
   1.1710968776613824     
  -4.6889644988680645     
   52.885288313845287     
  -14.474386243743554     
   2.7835778117505940     
   13.012127845320473     
  -1.4899284371371782     
   33.817110909923677     
  -1.4687418549076989     
  -6.7246648394484163     
   56.948347048370209     
  -17.644059609532139     
   1.0164285681119831     
   2.9443195929060937     
  -8.6137489887418202     
  -5.7484831634969868     
   20.780069860412976     
   15.885728858835488     
   12.602399655227158     
  -3.0706963837160108     
  -28.047421307248900     
  -2.6771320805479268     
   47.799887395891545     
  -1.7151585187466132     
   26.618987096020746     
  -60.292969158750793     
  -67.399863225320146     
  -44.428211825051996     
  -18.129285664693622     
   37.712299221538508     
  -6.4420576567589576     
   44.435602421944246     
   24.673432253005611     
  -31.837064024641712     
   21.125403604727669     
  -19.555983446750176     
   7.4759903474293319     
   19.676957394456682     
   17.785049550652424     
   24.220891772241085     
   25.927063869280712     
   28.866692741342753     
  -75.667016797007321     
  -12.281894134690635     
   28.297114098970631     
   26.237959090390504     
   52.334215344524914     
   19.953610337278846     
  -1.1602528739432534     
   8.6013276559328524     
   1.8696543313295950     
  -37.245110575709340     
  -70.759521374548882     
  -15.351817220481935     
  -39.798158221822042     
   58.053042568651300     
   62.092123515936549     
   67.898407763993575     
  -8.0889757908982798     
  -73.876447849333587     
   11.960633165908522     
  -56.947260854905053     
   41.869382191192891     
   16.710511288673956     
  -16.560944698124221     
   42.560657672372770     
  -14.437194115679331     
   17.716498040814226     
  -26.375807394289382     
  -40.189539171233704     
   40.074475600740477     
  -69.527202815571087     
   97.377289030058265     
   17.633660168341734     
  -43.757279812089855     
  -41.607490854709212     
  -38.406954293512250     
  -1.5102663143160140     
   12.157720711042744     
  -11.202163312757580     
  -42.270732947940566     
   41.043940756274040     
  -21.414370167961405     
  0.10072346967006490     
  -4.8732564347875122     
   28.472534552307504     
   31.233197501590894     
   21.821369701139925     
   23.948910134042560     
  -18.084033269869010     
   6.9927005970821758     
  -11.774875819750767     
  -6.6051421204207683     
   7.4326673298294459     
  0.90668358306935692     
   10.865663149352784     
  -9.3272567921650502     
  -13.543567389192487     
  -11.957052640025811     
  -13.023485795494979     
  -16.625490277443870     
  -30.973253006679112     
   36.934540647047143     
   2.7653582416088067     
  -7.6489332193091117     
  -14.273822510700507     
  -24.804005904067949     
  -4.7010775658765569     
  -10.025064343014085     
   2.6348301554008331     
  -5.7554002978091185     
   13.903994246107013     
   63.361550735416230     
   6.1098498438410749     
   33.176665317732919     
  -44.976036966276837     
  -49.935375804063767     
  -43.171218819111587     
   7.8550567897355164     
   51.773307767961839     
  -5.0655655482183430     
   34.103378640836972     
  -31.919342092661854     
  -14.616125990750858     
   2.2903125318979618     
  -24.321837957647055     
   17.249875686848274     
  -11.738021314577333     
   20.561597043918763     
   30.238086297327040     
  -15.504731070334659     
   69.274065833813310     
  -58.301020076290499     
  -18.072539522386993     
   26.090162205872371     
   38.782416058462488     
   29.539509804070359     
   1.8310190267207065     
 -0.85592525271584541     
  0.61088475033885148     
   41.500519192074265     
  -22.833054799297539     
  -9.9742103037647585     
  -9.6122270835833916     
   14.365744110715841     
  0.12632704171176276     
   14.423096760047319     
   14.800469219333456     
  -18.552671830452859     
   27.192883516496064     
   16.262310208094984     
  -15.549498578599097     
  -13.218625638288657     
  -33.515036738388588     
   30.397236301092661     
   10.950424380877928     
  -7.2195576022658008     
  -27.154338570265683     
   7.5272944492133647     
   6.4515629106263539     
  -23.194916433672063     
  -11.386054864013005     
   26.130209631497006     
   3.3932864805949192     
  -25.690182271948999     
  -5.7252325411552034     
   1.1087875831872882     
  -23.657274890876216     
   17.407339155294462     
   32.093418518098332     
   40.834882800159527     
   28.784408804792786     
  -120.34835682204633     
  -32.702916610108723     
   11.594298923313886     
   56.474815693603560     
   92.680015486404841     
   34.418514370567394     
   2.5052671562349795     
   4.0249261679431889     
   14.525057586391393     
  -25.534819088180164     
  -43.517885723667533     
  -3.2725451832789121     
   73.261273527352131     
  -30.569680782537979     
  -11.186251662722219     
   2.4444824710598589     
  -4.5064476305696743     
  -17.154618008312418     
   31.519714242988289     
  -59.788690416066807     
   82.154604868902084     
   39.080290068621132     
  -34.931464015053535     
  -31.618420764250793     
  -42.183666921452762     
  -38.856268434912636     
   48.629398628338215     
   15.441469559969050     
   15.703335806249306     
   41.499891064416246     
   175.47475287857722     
   39.250779351036137     
  -2.4437126578743928     
  -104.25412825657241     
  -130.04344247091495     
  -52.075933138408338     
  -25.340790901225986     
   52.190232717467651     
  -9.8197535161241696     
   34.760080661288228     
   32.110259596463045     
  -39.163591782071414     
  -50.362498369018354     
   52.590560920827343     
   13.219312002617272     
  -39.467748647834121     
   24.808039678714465     
   45.358160750936250     
  -85.940883494860628     
   79.220636558503742     
  -121.71513467686370     
  -42.959403242217249     
   21.547861524659250     
   43.997125580322482     
   95.195597662810442     
   33.777156535340048     
  -45.771039827976864     
   29.384037237232437     
   47.874256277710792     
  -44.212234270119538     
   40.314517223173034     
   12.265727762048543     
  -9.3408601798217372     
  -37.268801654975057     
  -36.558236126333611     
  -33.590695730274135     
   5.1026798888183045     
   22.189341120280368     
  -16.726282375527621     
   27.940650718864134     
  -6.2333840314497220     
   4.9651992927733009     
   1.7174833637751143     
  -2.8738812581162709     
   10.791211011675120     
   2.4900981174718990     
   9.9222984811184975     
   16.164050553733475     
  -14.318679300093072     
   21.329559545965040     
  -61.949738409394293     
   3.0808370030509602     
   15.254991627402214     
   13.365661289808520     
   46.160108275701234     
   20.236693961544962     
  -9.1916744988818841     
   4.4097530405366552     
   11.857745323616667     
  -37.300401879376217     
  -115.28825537289015     
  -22.406783322794070     
  -13.017694858927875     
   60.195770382793746     
   70.758804252536876     
   29.436686656568263     
  -14.560788096407292     
  -39.276339221511385     
   1.0246164193095428     
  -24.662921610808738     
   6.4353159129552280     
   24.160673810919299     
   27.547629835810696     
  -20.574784369649791     
  -18.489821752627090     
   31.194661344492488     
  -15.694877379259436     
  -30.320499393594361     
   46.366856953825035     
  -56.334469151570183     
   67.088506493729994     
   33.183442082571695     
  -7.5400136315429398     
  -36.276776059046831     
  -47.244621352579919     
  -21.454786619950426     
   31.567345739156149     
  -12.375878501846302     
  -48.706372682626359     
   25.556734029236896     
  -1.2109885752702199     
  -1.8034553924331542     
   1.8366447375280035     
  -2.0208981805433055     
  0.41749039369439883     
  -1.6206347068550324     
   5.5021392455632450     
   1.8456871262350587     
  -2.0085737789305615     
  -1.2354534555014163     
  -6.7880954753897749     
   4.4066511434048206     
   2.9779019118809145     
   1.3620503304238756     
 -0.93948483564912577     
   1.4910956987570652     
   1.1833074697989858     
  -1.7700731350804304     
  -3.8201284519387340     
  0.20151614597860237     
   3.1718192410874373     
 -0.17730725340618614     
  0.87558394252934835     
  0.98224843919905014     
   1.3208015725952638     
  -4.0489978531648951     
   3.5494803993520225     
   3.0256600409713537     
  -3.9479984261499972     
  -2.9693869892283105     
  -1.5534829719010963     
   2.3305754865334785     
 -0.43130614260558370     
  0.57648597964286641     
  -2.0645355719482050     
  -1.1409874589505027     
  0.20461196978250473     
   2.9624943514625444     
 -0.54229066818031202     
   3.3244956237896908     
 -0.36981727282962557     
 -0.89863707730598541     
   1.7251562309828838E-002
  0.91116226281249191     
 -0.88889825678753154     
  -2.7990445575177696     
 -0.67082290290087609     
   1.2262329213857850E-002
  -3.9706514533750434     
  -1.5206375623265340     
  0.86125878789505417     
  -2.8141471287275661     
  0.36824708817297469     
 -0.36643274742735399     
   1.5794344729486667     
 -0.84649545346546995     
  -3.0947368061500247     
   1.6134832223894215     
   2.0111984172001511     
  0.31784036804274385     
  -4.1434759924693827     
   5.0761881316035451     
  -4.5764545822933282     
   1.3952068614173245     
   2.1997525111370666     
  -5.2602286915961685     
  -5.0601214855874410     
   4.0328727892288976     
  -6.3211410257412304     
  -16.343123740892512     
  -19.070135677898527     
   17.335572041028129     
   1.5612438049517581     
   7.9652938653725824     
   3.4158665091946245     
   2.4186389395185812     
  -1.3508344149306544     
  -2.9612446697826922     
  -4.8871316264039004     
   9.1334201388667502     
   7.0917654686204337     
   4.9537440758089089     
  -5.4440345456364012     
  -2.9766004799663364     
   5.9368411053245644     
   6.3754018938326658     
  -12.561064531350757     
   7.3492262880498291     
   8.9561457823784583     
   5.2640461818207509     
  -4.3015753836675330     
  -1.6549755227528919     
 -0.32778496258248768     
 -0.97719941176173231     
  -1.3637300481117434     
  -1.3300812372137214     
  -8.4554538652732089E-002
  -2.1855171560353828     
   1.5579847304006482     
   4.0056598961068772     
   3.5857262285446825     
  -1.5332868432962283     
  -2.0017825017911361     
  -1.7480760707104581     
 -0.95663934826270347     
  -2.4628084306826259     
 -0.13368898390492009     
  0.98055297931830143     
   3.0325505003795636     
   8.7681337376615459E-002
  -3.4119865088156729     
  -3.4121941992610711     
   1.4398537968031553     
  0.92255408373115000     
  -3.1739567753410669     
  -1.2880485845566743     
   5.1662709139952430     
  -2.1884408015036811     
   1.5489786132217866     
  -2.3884270185603182     
   17.563303299672167     
   2.0465510691871742     
  0.62302429584508889     
  -1.9976728231764165     
  -5.9881095425706885     
  0.94565311870441693     
  -1.3410941242365688     
   2.1445209079295564     
   3.7146040617854044     
  -2.1073657723283925     
   3.7845765720642186     
  -4.6634438102888804     
  -9.5898689841096214     
   4.5066849555191926     
   3.3377908922077775     
  -4.2374009422110470     
  0.51937154161906252     
   1.1913427985822393     
   1.8328162339407341     
   5.2931470347036464     
  -2.6194239379080262     
  -7.4068876914078521     
  -3.5375733854713771     
   2.0076601691427611     
  -1.3437603889476248     
   2.6907637397905448     
  -7.3783010160186091     
 -0.33532209675484759     
   8.5360839646474584     
   3.4879729066866210     
  -15.681061262214271     
  -6.9326091567539052     
   12.157419796252331     
   6.2707295055873695     
   12.732542187797735     
   8.5465868277442141     
   2.1804323270099579     
 -0.79614596277081318     
   1.9525254547813913     
   1.5896711359550606     
 -0.26362536916989715     
  -4.0710434757713960     
   14.735605342563934     
  -11.323674644469598     
  0.51360908341058309     
   2.2914307575664372     
  0.21674010940184080     
  -1.0974413393135822     
   13.778557376206708     
  -11.912021008895040     
   9.9763222270359790     
  -1.7056202849896716     
  -5.1749699157799292     
 -0.16689547233989993     
  -8.1656375938105441     
  -5.7794983137838605     
   8.6537541396025102     
  -1.1513637023795935     
  -8.0023675918420096     
   1.8298248004520989     
  -93.768155648945282     
  -31.300272377589366     
   20.182038362310962     
   28.356509002424694     
   12.096323336051636     
   9.1896974469812491     
   55.899577226522887     
  -58.194691750660418     
  -7.9063526996580151     
   16.487245176968461     
   2.3599533763717457     
   40.128339253650942     
  -14.249957096983799     
  -75.247376293978775     
   41.709657693542965     
   42.162429037348069     
  -2.4857378461925168     
  -21.912407281228010     
   119.18307137041049     
   1.8092608200422575     
   8.7271452189803735     
  -4.2623940448553883     
  -11.416908390409711     
   2.5153709415693832     
  -38.521093013460174     
   33.567307875110266     
  -6.8173944636699648     
  -46.353195051920771     
  -55.011121678630893     
   1.0875260030847866     
  -6.1143855657674520     
  0.89767826946617080     
  -3.4091684706901013     
  -9.0757103717298744     
   15.163236832065328     
  -3.5958787983640650     
  -5.4398137236051713     
   16.561232874109528     
  -4.5386534805696161     
  -5.9534906010452451     
  -47.398323556591961     
   1.0894817587844816     
   4.0319161320931718     
   23.967280941026750     
  -25.070575220474449     
  -3.6011547928628236     
   2.2293624244265735     
   6.7503659557454263     
  -1.3171772869268144     
  -24.680254468379669     
  -6.0026925524117933     
   4.5666380199669003     
  -14.727478599690903     
  -1.7254043119602893     
   5.7729468414457639     
  -17.331769973815756     
   3.3310994000702201     
   6.8359913748484011     
  -6.6891404969170258     
  -6.2197117600360228     
  -5.7009362419175416     
  -1.4113008532157743     
   9.8602049255348874     
  -1.5666011678736480     
  -7.7011082109486342     
  -5.5861243196621500     
  0.74328678150268512     
  -3.9991956301532648E-002
  -3.8965122042913047     
   2.1659819598427452     
   6.6053736428883232     
   9.3288386582864149     
   2.6589303236795354     
  -2.4478834524924666     
   6.1921948304361631     
   1.3147427845816377     
   1.0980172260825345     
  -1.4985299086071246     
  -9.4998886076014131     
   20.113410466706156     
   2.8737330541750761     
  -10.055278514616827     
   1.9526195621008180     
   8.6447088825302458     
  -1.1618010355038544     
  -4.8138958304400941     
   9.0982827966354645     
  -3.1752036599479014     
   3.3114322611025457     
  -4.0777419469693941     
   105.23614042174790     
   25.936811936646386     
  -14.523472557625674     
  -27.692424420858377     
  -64.706305028862943     
  -9.0491322013049995     
  -2.3881653777665948     
  -20.187259774410631     
   1.2083580796075208     
   8.6315394949382576     
   66.791636046985701     
   4.0279376581694590     
  -87.844250497243920     
   37.868927840930404     
 -0.72642382206986256     
   8.3390221034937717     
  -7.2888037235864154     
  -3.6710803035270474     
  -23.414885714140741     
   37.026063648858461     
  -28.380023647423751     
  -50.612138520195224     
   41.098506671940953     
   19.326368345015695     
  -2.1782858478196681     
   30.309476273570638     
  -54.976902452767419     
  -19.345351578884252     
  -33.801269649109472     
  -5.0020928364310082     
   2.5273834797664274     
  -5.0280921771490270     
   6.8256081935263540     
   1.4639772251216288     
  -4.4879120228884979     
 -0.66632071825536443     
   8.3821151839997370     
  -2.6764580804186813     
   6.8019394836353726     
   1.2364895435967105     
  -14.668535852845411     
  -19.724332652571370     
  -3.7731622529685245     
   5.3994151556130561     
  -10.020260915495381     
  -23.202980865569693     
   4.1218130649933453     
   11.086097385032975     
  -5.8191727636995054     
  -12.771208170903019     
  -9.8738664332553920     
   7.6115524567940165     
  0.92146115768226600     
  -3.6636998787479591     
  -4.5959619799033563E-003
  -14.099768283700039     
   12.346214905319034     
   3.5778605801568957     
   2.4135228483448907     
  -9.3150862030650536     
   14.011918838530345     
   5.2238650885998226     
  -7.4573661139547633     
   3.9742376118535394     
   10.245679227955154     
   8.2049706063653378     
 -0.72376909784821619     
   8.3314622933365694     
   1.7597762727845241     
   1.8439323996538719     
   1.7155040958355945     
  -3.7611070928490280     
   2.4894005360672757     
 -0.80142672398096026     
  0.50660738639707648     
   6.8571389622113470     
 -0.93883944277768550     
 -0.34215259987899227     
  -5.2426156826322456     
  -7.0467628032163683     
   3.6156494031910489     
   12.618320161060192     
 -0.62948153466479217     
  -5.5983149684238152     
   7.7219808014817568     
   5.3638253080411893     
  -13.425222965483558     
   2.4353588495796443     
 -0.85200446113142203     
   5.4964977199753609     
   23.383241111245130     
   36.812860400780316     
   7.4794339773942458     
   19.300181859476872     
   31.170519726526106     
  -34.056228398878439     
   52.569183776131304     
   53.270681407828356     
  -9.6946504228342416     
   26.164563778074648     
  -89.975957610039174     
   44.061071002809356     
   18.197859682353929     
  -26.240829088354356     
  -8.3033274699610633     
  -47.932867802832504     
 -0.16458620542525629     
   9.1270936381561931     
  -125.23698751337027     
   19.221934539950531     
  -27.849833993552622     
 -0.89147134112059956     
   36.792056242916303     
   4.6637240756225102     
  -26.707510048781895     
  -31.502176947216146     
  -34.030561885157027     
   11.131606555652791     
   33.482381802224232     
  -20.825161099117313     
  -27.764096996761438     
  -2.8127010410683417     
  -18.991567842189578     
   25.737352610284589     
   15.764090523480089     
   28.528436593493371     
  -31.692551103946485     
  -31.100833831189295     
   1.1725596206670335     
  -47.222340079973911     
  -6.5170890690321883     
   19.977979393287303     
  -44.634077859938429     
   14.037188013345283     
   11.063197173761600     
  -8.9049730582129332     
 -0.17575061158802222     
  -8.5633808452319027     
   6.3922749037800441     
   32.591274892900977     
   36.929494361957182     
   2.8788795524324020     
  -39.763851076380369     
  -6.1863911291152105     
  -22.837611247916879     
  -18.086014733250678     
   17.709989020644183     
  -16.986904900217159     
   6.6319637731877217     
   34.321483954995692     
  0.32448857048564594     
   1.0381452645617366E-002
   1.0083573386665607     
   4.3060628954420095E-002
 -0.42540551653151770     
 -0.60981790022118554     
   1.4642723250279359     
  0.44670811898269475     
  0.38845660514270247     
 -0.48954731691253756     
 -0.10932428194201509     
   1.2003985194147417     
   1.5985005394601390     
   9.3148644687258406E-002
   1.2056953815613902     
  0.81741702047358589     
   1.2719047528461411     
 -0.54532417279021828     
  -2.4447565782472185     
   1.3677410464492661     
 -0.78633895819818234     
  -1.4343928642256698     
 -0.60806275088367623     
   8.0301694987655353E-002
 -0.70521493434901383     
 -0.89444833667563328     
  -5.7172139237645157E-002
  0.59378332201314066     
  -1.6753826372246574     
  -1.1670349587541544     
   8.8631627587445436     
   30.734418563469248     
   20.306349206736797     
 -0.65897286758261364     
  0.95969037837891458     
  0.21563050175193796     
  0.40380718446019653     
   29.827031234692026     
  0.68929255187522376     
 -0.91611234793364671     
   17.152551149354668     
  -3.1367421569658340     
  -19.856785090907188     
 -0.48356135356470986     
  0.21488533872983859     
   4.0386356098462084     
   43.828988715259200     
  -9.4441756310215119E-003
  -1.2788846126967237     
   7.0350690590705538     
 -0.67927400595785592     
  0.36088195722308336     
  -8.1606215360323933E-002
  -9.6094185190016628     
   32.875411728057223     
  0.10115390462713555     
  -1.6664727904470975     
  -1.4527319914747379     
   27.434222557075437     
 -0.33753637650025842     
   7.8449254698255411     
   117.30905337045048     
   91.449717431316984     
 -0.80450911816784865     
  -2.1409811250705721     
  0.18359479037751433     
 -0.34414625449506503     
  -29.153748974342751     
  -5.0089588647963286     
   7.6904141284629546     
   48.794924001058639     
   11.767887157610975     
  -65.503674524432782     
 -0.51771043105323122     
  0.53436479736866171     
   17.537637590339830     
  -11.527805315857803     
  -7.7181893655965061E-002
   1.1390840404190943     
 -0.14010790917005259     
   5.4319033078427061     
 -0.75091132237824487     
   1.7856503356312523     
  -12.343124254331681     
   114.15143326769545     
  0.57686883749523354     
   2.8154461543233236     
  -2.5695545523593766     
  -6.1513682126159477     
 -0.87365570241449897     
  -1.5983140359744488     
   4.7433206899133200     
  -67.489673484753467     
   5.2672495189729487     
   4.0586525810521605     
  0.41228955643124859     
  0.18130061411004958     
   2.4887473954570019     
   4.9675372623507519     
  -6.4521605537640614     
   95.622946529419735     
  0.27828520064294854     
   13.695602882790636     
  0.11758958383104259     
 -0.33314065949094379     
   16.488200546895225     
   27.236355271551119     
 -0.17862995287888112     
  -3.2567358864637210     
  -4.7511051808507965     
 -0.10021855853818104     
  -1.0186818266623456     
  0.82984747410429038     
   40.377881583498812     
  -51.602141769784986     
   1.1232285671929034     
  -2.5782929102260526     
  -1.5334991985658279     
   19.121561040249038     
  -1.1638592163642734     
   15.442380272623568     
   84.106133208150055     
   34.659719604016686     
  -1.3540941192275782     
  -3.5760532574025916     
 -0.38792508407578369     
  0.57097287946384434     
   12.647005991680260     
  -5.5093832196763470     
 -0.27167261851893548     
   39.695916178530581     
  -1.6240355288669954     
  -41.067407771402237     
  0.32729518596632606     
  0.17736204508535083     
   23.905511706857858     
  -52.741391373548737     
  -1.0524368862218090     
  0.56457723811085547     
  -3.7430486980615560     
  -1.3391872424240239     
   3.3322148685099702E-002
 -0.58820303048545564     
   2.1795880324992751     
  -3.5512830375506055     
   9.2421348761348152E-002
  -1.1165150670982698     
 -0.71963700791335594     
 -0.98497043768612447     
 -0.46565785640892177     
  -8.7506485085254546     
  -26.506970979606230     
  -65.367522627822737     
   6.3394840275068462E-002
 -0.19702777454174025     
  0.36658605375236619     
 -0.23774890468357268     
   8.5067073355128819     
  0.96335473864574195     
   6.7282532540370896     
  -19.436773381652962     
  -8.3085289123387316     
   16.246628499393555     
   9.3585937913850364E-002
  0.60831073446241857     
   14.656152884593007     
  -38.243383918624431     
 -0.18707957984604179     
 -0.83929714159946822     
   4.8396641830333138     
  -1.8140446957434941     
 -0.61984195254697139     
  0.85203097772069658     
  -5.7090979173457823     
   67.492407841433788     
  -7.2686984369975784E-003
   2.2204027683074785     
 -0.38091913283860962     
  -5.5270260820327692     
  0.67830349886656438     
   11.720197530299421     
   17.703212453981752     
  -39.964614873125129     
   1.7314900972138305     
  -1.4885426025698247     
 -0.63570212924600300     
 -0.52493421993316314     
   5.5206550545960580     
  -6.5632404466586935     
  -1.8851540495192805     
  -37.895967634981254     
   25.818382919831180     
   36.604290847113660     
 -0.49875142384234755     
 -0.90232613774345294     
   3.8265998767404148     
   42.534582223956960     
 -0.28655583117767114     
 -0.36435951173414410     
   4.9136578338038364     
   1.5587144862471363     
   7.3494931002078448E-002
 -0.65991531270942927     
  -19.331836461131935     
   147.20266388248854     
 -0.23363135204468607     
  -2.4777948487198822     
  -2.5609647521790726     
   22.593226509094567     
  -1.8184869209080674     
   19.431226982314218     
   200.55942982734817     
  -86.670660296187108     
   19.089923096978140     
   4.1786356560214548     
 -0.62070806744347207     
 -0.30520720093924308     
   16.171221056472209     
  -6.6508555294665586     
  -3.8655515797230544     
  -14.913354002547479     
   26.293129471787950     
  -4.8309499308991661     
  0.37295576932872765     
   9.2070600607580128E-002
   17.095503719103945     
  -83.501943020476318     
 -0.97450860144141727     
   4.8221090380867073     
  -1.7422142952171680     
 -0.85663726770578741     
  -1.7163816015391267     
  -1.1094748070681093     
  -32.239174215613446     
   12.024170378326255     
   3.6449814432358243E-002
 -0.12853742271702945     
  -2.0397677093477053     
   1.4760152850401616     
  -1.6193904912942017     
   7.1782105954182134     
   64.254529490952251     
   26.700505838706924     
  -1.1301039011112393     
  0.13548934381321956     
   8.1964526703495647E-002
 -0.24217793702269716     
  -28.403092666376743     
  -6.8160107566858406     
  -1.8256266747120418     
   74.420901693438537     
   7.3379704582834986     
  -31.497350532353103     
  0.56594859713353718     
 -0.77178582965355946     
  -1.0258023128973162     
  -2.4220293110542142     
 -0.15623079119535122     
   1.4879985730894549     
 -0.46375559661432036     
   1.2461740636342189     
 -0.72646784497057493     
  0.45537897346687389     
  -26.578669047572141     
   18.456936885308100     
  0.13859455993058334     
 -0.18856096118888699     
  0.97150436128222362     
  -4.7980808892283751     
  -1.5301920681573147     
 -0.44511740610308909     
   76.880341652709134     
   36.434509213679448     
  -2.1222189228991777     
  -1.7391724917552447     
  0.99799164048956468     
  0.53907987877942154     
   60.677308546679363     
   4.2089156535323253     
  -2.7050645557491269     
   60.291280211808143     
  -26.284435775289076     
  -33.087899210385963     
 -0.77332642852257150     
  0.68891955767748414     
  -10.864990409453945     
  -55.130847404343889     
  0.55587145689423734     
  0.39494787571522066     
  0.62993446345126902     
  -5.1018912595066510     
  -6.5606351836275570E-002
   1.3245187437910453     
   22.312912413219223     
  -7.1692637777645567     
 -0.20381226673183353     
  -4.4830790694400466     
  0.25943615895367084     
  -20.108142455672827     
   2.6179025345856117     
   3.6205109446118948     
   7.3296378643490083     
  -27.782715203995426     
   2.3759636561574973     
  -1.8550019979565138E-002
  0.29409860094898493     
  0.19295861774890483     
   28.893741289043398     
   4.6884315686332414     
  -4.0231885638043972     
   61.490933087990385     
  -20.125013340902171     
  -45.036329082736238     
 -0.19882073913370760     
  0.43646049309342710     
  -5.1774572746197158     
   16.975796068467321     
 -0.50717562546369821     
  -2.9980504170897819     
   1.2072376286554665     
  -7.7064706182758111E-002
  -3.5618653183013702E-002
  0.56479018972334916     
  -20.792423415825979     
   19.218836512666840     
  0.58725432203026529     
  -3.8231664759814863     
  0.98803589844194839     
  -31.067454073539331     
 -0.38379348266107377     
  -20.333907821974403     
  -59.499595625879749     
  -19.922146527732629     
   2.4313066139408361     
  0.36249772346061421     
   3.4693799224004264E-002
 -0.41837123467085718     
  -9.1821247809581834     
   1.3460952539710094     
  -1.6285476998457702     
   43.111021456717182     
   3.9020883386161960     
   53.197633212208835     
  0.55989716781834431     
   7.1730340694801137E-002
  -9.6154370233860220     
  -26.454020497622906     
 -0.59541466355005890     
  0.72971670266523825     
   3.0158331939624783     
   3.3563106005725811     
 -0.65253201122203341     
   2.3144228161939688     
  -13.714229739347271     
   27.564464150287016     
  0.17697122399909709     
   2.0028150962539693     
   1.8972283980498381     
   17.536980826443969     
  0.20514558055611409     
  -2.4005613615442867     
   87.976188856323603     
   65.822780346601050     
  -3.6014476675485650E-002
  -1.5937685723027342     
  -1.4472294244671368E-002
  0.23882216636810477     
   6.9841385894526198     
   4.9603915974857671     
  -8.4163373905203684     
  -5.5457277494368027     
   6.4134835713109553     
   21.363855497058939     
 -0.61869829577247981     
 -0.24380652105180523     
  -19.069058279210260     
   49.807082174756204     
   8.6705579115209361E-002
 -0.50824304988457547     
   1.4495430727422325     
   1.8168292736247338     
   1.5290785888580689     
 -0.73669192160757035     
  -32.752219451977240     
   42.023629298846608     
 -0.61617219606506546     
  -1.2776296968529552     
 -0.94983641071175118     
  -4.4991345610956870     
  -2.9318220483848086E-002
   13.274860422895401     
  -28.623147217143643     
   61.710280701514009     
  -7.4702333944225501     
 -0.14096830029854523     
  0.10997430349328637     
 -0.36553098387413990     
   19.386186128142004     
   1.7436684885302554     
  -5.6235078777284082     
   132.09338870607223     
  -16.419852514142462     
   14.294393009504907     
  0.54273953974954892     
  0.61921298825644666     
  -30.101638702537201     
  -3.1164804318297379     
 -0.57978798977515977     
  -3.5761919816804335     
   5.0237009521328755     
   1.4648787290496703     
  0.20248618022455989     
  0.41391292197879131     
   15.930639834429094     
   2.3071114019944754     
  -5.4856251126977826E-002
  -3.3373404203552943     
   1.5209311673693260     
  -29.873407932773251     
  -1.1600188325568330     
  -4.5771080367052752     
  -31.972346713717091     
   80.555133909279533     
 -0.44753290858950867     
 -0.18759752797935375     
  -6.2014347208740411E-002
  0.11280505768961108     
  -26.709621387457595     
  0.87920580926111080     
 -0.37593102428086805     
  -60.307356266850327     
   3.5699133817081434     
  0.16783809935638375     
  0.52579411847567326     
  -4.2318044157883469E-002
  -13.300323093263794     
   4.6053148742043941     
 -0.30744266071147869     
 -0.59824421782994064     
   3.6566620225114121     
  0.76838095602485512     
  0.13669300714516647     
  0.30075459603684507     
  -2.6138670979265561     
   3.4395299058518787     
 -0.18736190571073486     
  0.85441088275761545     
  -2.5104084658485949E-002
  -27.225776645999709     
 -0.75222606981262019     
   2.3725598794453409     
  -24.068522774797813     
  -88.484439966220819     
   2.3724141562953478     
  -1.1567747521566067     
  0.37828960460385197     
  0.31164291425031704     
  -6.6570136831848776     
  0.88476939875562488     
 -0.12074881378816966     
  -26.843072967870373     
  -6.6749000910509659     
   47.803869633619399     
  0.50354141827679222     
  -1.3411615764827736     
   1.9797980170273950     
   4.2272844788409927     
  -1.2232930884461723     
  -7.7571228847543999E-002
 -0.40138858340713451     
   1.1056965740610392     
   1.6871264421150705     
  -1.2831547646826935     
  -12.293698324410709     
  -37.944876503884842     
 -0.54366818542552642     
   3.0280454048884966     
   3.0720349391439705     
  -27.998434951458524     
 -0.25437435018022975     
   9.5186903871166297     
   42.832570498405282     
  -43.862339983123604     
   6.3476881733736139     
  0.11205238083562939     
  0.54050485755168554     
 -0.36395238143277103     
  -6.5577288886137071     
  0.20013224655534484     
  -3.8125457280081512     
   16.163895747327238     
   7.8279220858043610     
  -37.722817611079066     
 -0.22992772784748583     
  0.14719910419443258     
   11.912455853464234     
   26.828896963956314     
 -0.45867198414910743     
  -1.2293709364787304     
  -1.6460992547313285     
   1.5316274764519147     
 -0.49575486520765505     
  -1.5914392304289557     
   18.158074386087204     
  -47.941153940217944     
 -0.17623696066044345     
  -5.7613209953805374E-002
  -1.3839573063632513     
   37.588331849477321     
  0.27319132177572547     
  -26.671172535937249     
   2.1426133176779061     
  -120.44520356406514     
   13.781151559379163     
   5.4240182132562822     
  -1.9180752770022806     
  0.17123706805673058     
  -70.892832296670164     
   15.658647564260338     
 -0.63019744234922637     
  -44.074804448348381     
   8.7841358447594668     
   51.913371214452660     
  0.95378407098004969     
 -0.84493292804645126     
   17.121728465963528     
   61.173206438831301     
  -1.6400832212422847     
   2.4287743367114554     
  -7.1862637526012501     
   2.7138697127091023     
  0.99340430408901637     
  -1.6365317916957849     
   5.0418766141544831     
   66.748689805193990     
  -1.4340974721617441     
  -1.2489306463889975     
  -2.3666146573145532     
  -53.953634983353872     
 -0.41843106563195592     
   19.653002318584562     
  -76.027231931799179     
   69.532458104299806     
 -0.79244751044230866     
  0.43350775423307214     
 -0.90719092152589587     
 -0.13629966475113114     
  -18.149306784177131     
  -1.2633554167695646     
   3.8151151829517942     
  -76.943965727274374     
   8.8433187002879023     
  -20.048218124289168     
   1.5428853494659143     
 -0.12208615595958477     
 -0.70001875355020604     
  -51.667174002039395     
 -0.66842520687593143     
 -0.21704029688758814     
  -4.7411807832422008     
   3.3940295987393143     
  0.58590726971127216     
  -1.3430625980277733     
   21.589656461188856     
  -13.590529908288014     
 -0.65101154205533518     
   4.6594380547727976     
  -1.5371753403276809     
   21.103251836399370     
 -0.19588598534442023     
  -36.351060578980686     
   201.99402227566443     
   55.720100648708211     
   8.3594436810975790     
  0.96626374450848862     
 -0.83260556239919215     
 -0.12327522633485956     
   33.931878618876461     
  -8.8267548216323615     
   10.287329010049875     
   173.72651077683838     
  -3.2246339602798234E-002
  -169.63990066724119     
 -0.11714692480987626     
  -6.9025173472703372E-002
   10.702668157128125     
  -45.019543286898553     
   1.0339177493109175E-002
  -1.1607274846797597     
   14.430197695659455     
  0.28690148450590480     
   1.1367424174825311     
  -1.1660192554922295     
   24.399322447839744     
  -52.079791733479468     
  0.33158370835811046     
  -5.4116115808650731     
  -4.8088084687379897     
  -19.821917069896031     
  0.94128551145362160     
  -5.2518636838346255     
 -0.18972520472511362     
   14.986053899675994     
   8.0879566988087319     
   2.3008317410852617     
  0.76663736237711944     
 -0.36019923151951572     
   31.370014033835002     
  -1.4526447159940843     
  -2.7659508471730634     
  -79.352735827672390     
  -1.9142584093536903     
  -80.706439675558073     
   4.3883615601776588E-002
   7.1624731059990593E-002
   1.6932857413851137     
  -24.184154625394985     
  -1.5503919356001359     
  -4.6679378778678227E-002
   5.3423093655292444     
   4.5993479900664331     
 -0.29398676460666290     
   1.1635222567184083     
  -4.6183036888409426     
   71.559175689454889     
  0.46829062503656610     
  -2.6871801326508944     
  -1.3935873157325211     
   29.093993061597441     
  -1.0435283179707853     
   24.688548450094892     
   24.428240213604436     
   77.493210999273970     
  -3.0571558414797511     
  -1.9606559615733608     
  -1.4583927840083276E-002
 -0.35068537672535272     
   13.672691246951189     
  -2.9169464866645090     
 -0.48642825942665324     
  -44.978330609634369     
  -6.0019534733439741     
  -47.404202671759464     
  0.32490654846832517     
   8.9974946079075663E-002
  -25.650500677800867     
  -55.543882664030122     
  -8.3062102328648274E-002
 -0.93382080886646890     
  -22.652882186848284     
   1.7814335712337925     
  0.43908172055883415     
  0.29409480960757950     
   13.613613649985462     
  -79.056533560709440     
  0.71610402635648274     
   3.1500214354498888     
  -1.1049793782274817     
   17.116853962177917     
  0.33394735935379161     
  -13.610621933641694     
  -55.228677581774548     
   59.222396960651018     
   14.265654445913638     
  0.75587486851965113     
  0.73658203474141282     
  0.44238446624702171     
  -6.4806504209312799     
   4.5029163280842566     
 -0.59382380748425678     
  -50.349896853091586     
  -2.9219755763089794     
   4.6176298679044399     
 -0.33700017134115162     
  0.20740286544105310     
   17.454054277799472     
   63.121972057335292     
 -0.92702291056336861     
  0.86130156255434520     
  0.70996348431851364     
   7.5602561425542829     
  0.93958004464124789     
   3.4241124044294189     
   30.972557176904683     
  -18.762737273749803     
  -1.7076923776435087E-002
  -2.6830514065564786     
   1.0498439576933867     
   5.5414418611590763     
  0.30680208309160723     
   7.2546213825708605     
   43.027467103371698     
   14.118744904047292     
   2.7373723574373079E-002
  0.30548818920234666     
  0.56767752540656102     
  0.46009445221470252     
  -3.7490941616194098     
 -0.83527304436393690     
   1.2270379165440104     
  -65.138612312295805     
  -10.039424210645816     
   37.141082183207978     
 -0.20343635398826140     
 -0.31692559964706118     
   3.6900541477659434     
   13.672567318699157     
  0.55379459760084659     
  0.62265647804623314     
  0.37127826037088935     
  -2.9967619695674470     
  0.40444600527915464     
 -0.91567412275885052     
   7.2686747027005394     
  -65.601560082961825     
 -0.37753922655227473     
  0.85065726369485173     
  -2.5098713175522778     
  -9.2746002187827372     
  0.31307390033061061     
  -11.313153640985650     
  -48.762646401041508     
  -45.875340240787331     
   1.1344143166638736     
 -0.88490230714054885     
  0.36096774218884131     
  0.23896902756160332     
  -17.770812328215680     
   2.1400257707335424     
   5.1181331023056780     
  -13.812847990732422     
  -23.682929588169742     
   29.768007424978602     
 -0.37334914176619233     
   1.2476321828895218     
   27.553340805100312     
   36.478246528025331     
  0.37199043654643116     
  0.88227186086088272     
   7.3189136471974576     
  -1.9217901098794747     
 -0.36734002504158297     
   6.8365239407665479E-002
  -15.736500311055838     
   42.807601479922781     
  0.28932950318953182     
  -1.5885015031347465E-003
   2.0772412476343121     
  -33.258880538191846     
   1.5294804326595048     
  -9.0976795402571771     
   64.883546488251326     
  -71.962274761089020     
   3.4218306652864316     
   2.6330488274824821     
  0.41838238188350801     
  0.24152102740468162     
 -0.96199195950844041     
   2.7651878660719076     
  -3.2058868900059672     
   44.473202011397269     
   4.5155148440555308     
   8.3474275543971945     
  0.37127125475811273     
  0.35730088319201764     
   6.0123448047772197     
  -12.534527026407707     
   1.2478168224895918     
   2.8896482729716921     
   6.3558203676052045     
  -5.3451463493059403     
  0.80548977469422900     
 -0.87046458310914177     
   47.054827214231601     
   39.480284126460809     
   1.9403658056576630E-002
  -2.6655004092365626     
  -3.5001186320651190     
  -46.673864499323919     
   1.9340920483282349     
  -1.3792129482795299     
  -25.520290650282874     
  -25.013281841938980     
   4.2925160998477390     
   4.0611172521342445     
   1.2622789948210922     
  0.52190601697697958     
   35.807932308400289     
 -0.85753083944077624     
  -8.8832919453413872     
   70.448536515094759     
  -1.9339774252472430     
  -53.236711447788210     
 -0.11058660023243659     
 -0.10769985677992459     
  -22.002272088946992     
   27.810531249956426     
  -5.8205909513700013E-002
 -0.17727249651701429     
   5.4935703831415346     
  0.58673537255701136     
  0.75177845910345342     
   2.4877332886194128     
  -59.832189697190103     
   124.94317890873248     
  0.75835139368925952     
  -4.2327565485603831     
  0.70309236732131974     
  -38.749052484354380     
 -0.30709363855641325     
   16.403198617882754     
   40.503608527807053     
   48.854199056903802     
  -4.8264028840552706     
  -1.0874387065760971     
  0.16173203202147995     
  0.35681821120517637     
   30.537967629421882     
  -2.4517571331259762     
 -0.62402971210816205     
   96.244799615087416     
   13.469252712019534     
  -23.512632482249625     
 -0.34537994385365717     
  -4.1914615012057452E-004
   8.1534871048762110     
   18.467280476245392     
  0.13777876957144958     
  0.46480198365391329     
   3.6381934686404493     
  0.63056236704041502     
 -0.15300583061359727     
   1.2365372218586492     
   13.869251818481622     
  -28.882314138971097     
  0.48078863766946461     
 -0.75266272872135875     
  -1.7370808978544641     
  -32.101402769038010     
  -1.1186152993015270     
  -7.7356274298580026     
   22.740211019253088     
   76.352914664267374     
 -0.42271298272662949     
  -2.9473836757391689     
  0.13200396684273089     
  0.15267762744341506     
  -22.859812515478925     
   2.1641542787184762     
 -0.67290995332689374     
   56.633447919731296     
  -12.223873654676060     
   7.4481230379872239     
 -0.68089537037711123     
  0.84405795211035151     
   18.198798544632886     
  0.37082436982068517     
 -0.72282292863441255     
  0.91589069952342095     
   8.7066137398547330     
   3.4464926246788710     
   2.7280639629326104E-002
   1.7879814557944631     
   12.676356484756871     
  -92.081591589737272     
  0.27975450128459306     
   3.3531129638919968     
   2.9873371729483678     
  -14.626869086181577     
  0.87851082670624470     
  -1.0042729032811071     
  -21.002591656645709     
  -80.189837811204157     
  -3.8137571548162481     
  -2.8163541124233502     
 -0.36854019448260267     
 -0.13681444297363202     
  -30.519295085754266     
   6.4694433804528506     
  -4.1714242522471014     
  -28.937075540543770     
   4.9364851530729466     
   3.5398356592410622     
 -0.96589078797771954     
 -0.86380136853798339     
   7.6584658935443333     
  -16.564659330672036     
 -0.85519215293028739     
   1.9142150698537195     
  -1.4914933768642487     
   5.4643204116078667     
  -9.9498436520917763E-002
  -1.4610584282951473     
  -5.3156519771287796     
   33.949778226104655     
 -0.20772919562866762     
   2.6680691151599132     
  -3.4333162602517363E-002
   11.330605481311164     
  -1.7990641872377464     
   5.7924876833530865     
   26.970117867611229     
   2.1006386846555314     
  -8.9738984032060323     
   2.7426821338963121     
  0.67589659481989950     
   5.8934422503121295E-002
   23.700858981205794     
   5.3860916847555300     
  -5.9836966022970426     
   45.604298954743236     
   9.9093960144876974     
   70.521441748116686     
 -0.48243356868025877     
  0.96072752736335154     
   6.7091508587306095     
   70.841570447172586     
  0.19952437841314224     
  -1.4507505889862413     
  0.84688865346648901     
  0.62130653922359480     
 -0.10197938498733446     
   1.4170414625173269     
   27.158711034759087     
  -60.000670661365803     
  0.25050945061573793     
  -2.4547271046770138     
   1.6713647358570598     
  -2.0552747601467276     
  -2.6608546003137818     
  -24.122157206758544     
  -96.509515752794172     
   139.94913304322847     
  -21.075452998725726     
  -6.8220161466470470     
 -0.41619209197720880     
  0.84019520020693805     
   47.175677752306157     
  -12.873244503877547     
   18.700797717392703     
   20.489691321050604     
   12.346194536115364     
  -132.15190415081818     
  -1.7759164771466236     
   3.1236496454125415     
 -0.42750524162759551     
   6.1538990282912129     
   3.2475176996863104     
  -2.6445004850113540     
   4.8315115069047820     
  0.33877630027488864     
   2.1561870473632747     
  0.50793140774933143     
   69.143267042733498     
 -0.48325516500687843     
   1.4832978455823487     
  -1.8096462889707943     
  -6.1530241740386806     
  -14.965744314756286     
   1.2259405942440076     
  -4.2737778142294837E-004
   2.7099723645162546E-004
  -3.2300111254447288E-004
  -1.0946351956724841E-003
  -4.3633572003719942E-003
   7.6862586575084921E-002
  -3.8699048832816371E-002
  -4.5668683643830131E-004
   1.5814129677897938E-003
   8.6420072052073289E-004
  -3.0861588056001324E-004
   6.7675783593055248E-004
  -3.4153934203899746E-004
  -2.6638232679670758E-002
  0.17809481014558823     
   3.8098177592150594E-004
   2.1153708441277858E-004
   2.9414784578200553E-002
  -1.4067428273638473E-002
  -7.1148539905306054E-004
   3.1818675245113030E-003
  -1.5068375769660374E-002
   5.6945427815674861E-002
   2.4764189675561936E-004
  -3.3727420303956556E-004
   5.7025166375487872E-002
  -1.9091741466122911E-003
  -2.0627309201896372E-003
  -3.0875452673592805E-004
   1.1359296417335138E-002
 -0.87817244990306864     
